function [Y,Xf,Af] = edgeCuratorNetwork_V2(X,~,~)
%MYNEURALNETWORKFUNCTION neural network simulation function.
%
% Auto-generated by MATLAB, 06-Dec-2019 13:20:39.
%
% [Y] = myNeuralNetworkFunction(X,~,~) takes these arguments:
%
%   X = 1xTS cell, 1 inputs over TS timesteps
%   Each X{1,ts} = Qx13 matrix, input #1 at timestep ts.
%
% and returns:
%   Y = 1xTS cell of 1 outputs over TS timesteps.
%   Each Y{1,ts} = Qx1 matrix, output #1 at timestep ts.
%
% where Q is number of samples (or series) and TS is the number of timesteps.

%#ok<*RPMT0>

% ===== NEURAL NETWORK CONSTANTS =====

% Input 1
x1_step1.xoffset = [0;-15342.540698595;5.30748906995243e-12;-1.25895744581426e-07;-1.40346853781958e-07;-1.18813012698623e-07;-1.40346853781958e-07;-1.15336504930302e-07;-1.12216976099339e-07;-1.18813012698623e-07;-1.12216976099339e-07;-5.91420927881365e-08;-0.957084335496851];
x1_step1.gain = [0.10307418619731;0.000130479704161132;5220393.30213686;12102169.9620964;9391416.67660819;9308429.95850305;9391416.67660819;13372298.6843264;9541846.60886222;9308429.95850305;9541846.60886222;11564993.490665;0.144983000683284];
x1_step1.ymin = -1;

% Layer 1
b1 = [1.5315680067466186376;1.9553043747289717835;-1.9179429732865822533;-1.8646402898013276772;1.4074309044442083749;-1.7978498732536682958;1.7768953337181339069;-1.689146376679956818;1.6499567331961946248;1.7266479506033753921;1.5877306982057106666;1.4587000278198034575;-1.5290937554716730329;1.4640747879317890234;-1.4328555269950120632;1.5053357000603129201;1.4644230205570292203;-1.3957439474190227457;-1.1502868682560789537;1.2332335504036853191;-1.1879730715445955269;0.36996619852302259357;1.0128191435756883632;-0.92299486940754271735;-0.80557389709446425297;-0.77531882974210819537;0.89160414776578378326;-0.90571583892823659401;-0.63910209660370964624;-0.055576263846518848821;-0.93252105809616203658;-0.67227035592160977462;0.70486860259614014801;-0.70791527475642646028;-0.49780501184653191959;-0.62340318355539614537;0.58199972177350256519;0.17210983084801756426;-0.49206522132527164004;-0.35507857095017303362;-0.3798995731720465896;0.39502196540316236728;0.38384116877090135311;-0.21403709872826653937;0.20617647770736041712;-0.25171077773719280346;0.034643178221621870327;-0.31644828942142017025;-0.0465788037770819216;1.0214575019483653762;-0.046524637833121974817;-0.032952964896369466019;-0.17716738615061475293;-0.83480798729328276053;-0.39947492238249987517;0.41233129845029181659;-0.1404767955772328325;0.34230861771039988728;-0.6384583402818989617;0.3770521208326210183;-0.36156141194762658753;0.67126076440571236237;-0.024917740165545362863;0.52414400405435690455;-0.70880073301797985597;0.23281412835395493;0.36914126717875128669;0.54739080230622749745;0.8478806569420694883;-0.80575684846361694813;0.9555208815942213274;1.0141961679326090273;-1.2470638338530668499;-0.96914439536332408487;-0.77072554989317698659;-0.9871153421791860616;1.2083291647872471675;1.2735757381380314879;0.8422328724912055975;1.0926499493263468477;0.73228209494276086389;1.2553885171168985835;0.6678262100706606752;1.2778766932604372908;-0.27287212067808208626;1.3979521779655941227;1.4311154395312808418;1.9587872367178993382;0.97312226757621933526;-1.5489166776719782703;-1.7514009448424501247;-1.5877480014205982428;-1.7363269333143194206;-1.7525407608638499113;1.8921465828007577592;1.8332286437583131811;-1.8361213359257273492;-1.9483919003936287506;1.0092277976934767025;-2.2858594542552017614];
IW1_1 = [-0.14751935598806908967 -0.86014783612867140583 -0.030473331222691489584 -0.80013248157427563356 -0.14504938541453649137 -0.84196876041546164782 0.65048892609294228784 -1.0933076251661792977 0.086801238747369335869 -0.93491357930655705211 -0.42443994495408982059 0.79705984090833137401 0.28857234214554250418;-0.6924347164212171224 0.37142113325124848089 -0.66979972009195931637 0.76726509550243571223 -0.49227324952242396128 0.71567765780182091007 0.7001212906842110284 -0.24654367394410006686 0.4548013211473280748 -0.55632980658505382099 0.47153383129466686086 0.40922369534894315057 -0.34003849544431108409;0.063498276723672822386 0.28311067925971317161 0.12843723403661150284 -0.39103773736902353031 0.33811675300160648483 -0.53078007633136614629 0.27343841213256919742 -0.19509632473529869845 -1.0191884388233625192 0.58891880968043497369 -0.83143624848214248146 -0.67574801200917988808 0.82718319628300363;0.65785383660334784128 -0.13456959916728303273 0.8011019743932137338 0.031310792891418665063 0.74741754673390436992 -0.34040337628287681282 0.12338754984872478404 0.75030382121728511624 -0.43690724580978407277 -0.17376409117152866179 0.73798804281065344401 0.90785593143637632885 0.17739708392277708793;-0.53904690613156192036 -0.90261201233437349245 0.50244040095525110967 -1.0222821342965693336 -1.0380759226340814383 0.19532265828970296617 -0.9820908737259537169 0.1502623610845774671 0.16375918222412727543 0.60772717018370270292 0.3096864643923685767 -0.14257423406569119662 0.69680295304158390568;0.37625269573568259629 0.35769811509002391592 0.69566243406857475318 0.15741708969412121499 -0.72542651309285832717 0.67784961925076092637 -0.61363378914981925316 -0.44921772053970404626 0.33261807023108819203 -0.86564547137076419681 -0.25930700868162098738 0.19682391933062240441 -0.82835429906254809396;-0.85283831727426440139 -0.55488761934130492737 -0.54689947513931402856 0.33923867081498104703 0.94614831721962755484 -0.7282613680379115273 0.13446946210062957205 -0.35488453573118394768 0.68919822537903485671 0.10952164554900387095 -0.16360286297067019867 0.68045108444583979335 0.011281287777264200137;0.57076713296715386736 0.40939742397194078816 0.12070459545443525118 0.75292713695925639339 0.11064308391846552904 0.11105003490933167132 -0.63369505318470664701 -0.58220411211529232709 -0.67766226737436607852 0.7366622794355799364 0.62055305304760421947 -0.17565232317180559662 0.84506187328187931662;-0.46151015402512940433 0.62895521677200039168 -0.36619751724483490252 0.25453019764180578877 -0.40650812164701694007 -0.12323849861589383781 -0.13986250819752771291 0.99853693101261786769 0.2550414852612957195 -0.39726650731398827077 0.22687791038817653466 1.0754026915430139333 0.73484315011042056209;-0.85070774431668827464 -0.48637714086468730734 0.57718035162742875599 0.9108100536836279959 0.22478738727945601905 0.13929736998751296451 0.0016041781664115645906 0.49690209809412744235 0.28714344418046450214 -0.80131338539691654432 -0.29989006722819239181 0.76786976225911984795 0.17349703950130265784;-0.16758672409225727762 -0.12345027851655081264 -0.33483580241229754515 0.93286731999036920371 0.43158243156819248165 0.54393358248283796286 0.13087499173401606622 0.31881160090451921008 1.1040342677233354607 0.87632870141309304746 0.45974325553592076954 -0.18243108277750752499 -0.34251723223532876128;-0.69497992622235293947 -0.51875829555989372288 0.1111689824730877213 0.52680363091431259281 0.42156546518024862191 0.58255951946216777415 -0.4842763959989348499 -0.59666160486177477473 -0.66757351280577648112 -0.63073161727235393936 -0.30812109119319597283 -0.52338132104810830558 0.86481600639347055992;0.29178080418689189557 0.77395215646170079093 0.6143976495821956707 -0.71933955133083937739 0.24852729875293527728 0.68592498922607603173 0.91545533064480388852 -0.48438489758107128313 0.39799685774244530911 -0.4209925084598896694 0.24282717894159494554 0.015727557817970163473 -0.68167628183393480512;-0.79300341899316884042 -0.59717770880330645067 -0.21011924909409021578 0.35953564240304641819 -0.51932867858452202992 0.10686391618504489931 0.23583807799640699177 -0.54907446868931009121 -0.74526208733436671849 0.63389141782653746215 0.82168284047758932687 0.022727278668660394478 -0.74024499304850510661;0.62297007921971536692 -0.61835064538334116868 0.68279911486030187007 -0.13535624460843437289 0.53870026588697283998 -0.10540103335216252645 0.2465572708162391824 -0.67855551082377130179 0.7669811809030939731 -0.68105142047157085639 -0.65544285054839535043 0.034981330359536599861 0.65244403829142316731;-0.32691616204555534742 0.042557273906025996912 0.36360414250140210557 -1.0094080044091138237 -0.43938894550815588147 0.68040514296445708808 -0.043220889535952322635 -0.23996510600907103306 0.29123552522620632654 -0.94132855059289965993 -0.10735942186417755939 -0.13557932286457741178 -0.69255224795329317633;0.62942369030792666429 1.1088064931507810584 0.44511175774321076748 0.0095645641308993601531 0.40200119891950542028 -0.74100532022576870439 -0.54153025387327102802 -0.26054510474936276587 0.71506800745745413561 -0.61060407754811629744 -0.45214883902808955529 0.3862252453086302828 0.52774389768640606047;0.93604195428411263169 0.43945731068060478464 -0.091156646164599591797 -0.99640404704754781395 0.78580728274280597923 0.27694142930504345168 -0.3651958881422295855 -0.1723098177880777182 -0.55374594761394557718 -0.075995667458642793268 -0.84670140398329063469 0.081039332929909210779 0.28880512717617973228;0.65018745186736914832 -0.037879586135782850054 0.57351396708705171257 0.85783316639727835717 -0.60426857060537619848 0.46322151900412489312 0.24919355443243060289 0.72959269587816510949 0.42345892998682710395 0.50319093541056236774 0.72274109293139265908 0.090829903526949626325 -0.67769381652718285736;-0.4812581611912736812 -0.36967474281154721893 0.43931895826383682291 0.6821944337814879189 -0.55058217364397021854 -0.78050255797388046197 0.32488528990333209734 -0.3815333198778544932 0.76084528676997076335 -0.56284039950250330797 0.84126597656405177617 -0.35727193899422676759 -0.21779641893545073628;0.57912182203967343952 -0.47523513937336359092 -0.29742863006967734663 -0.5275978163674400756 -0.8155966346226717345 0.32649851691518166907 -0.64064768797628257602 -0.68108207175920310039 -0.33935032338763215787 0.25159151112333238975 0.58923604931687845188 0.68973545849501416427 0.63461776804612568537;-1.0071325562492041694 -1.2332451103864250364 0.58567342347888973197 -1.5187378656117411779 0.53176222591409738616 -0.23072855207253484267 -0.78954848133198285431 -0.90268130151885439538 -0.91134447478256219721 -0.14145153830153531227 -0.21795517563289965035 0.4643402194981424147 1.2010853159418444225;0.14906047366842969937 0.43417088093896266665 0.48981931189242994273 0.24599033850295828896 -0.38838401253689136539 0.6707066700570407658 -1.0485878369272272348 0.15152466380199433593 0.18935193863997509811 0.52857663874947491411 -0.94071685875006993971 -0.56952294201847941668 -0.608036770071289423;0.52435760316365631617 -0.16417540786656842355 0.36862904693637638109 0.27084985627437446754 -0.22753494874017793359 -0.90260296301671461006 0.076235623958563009106 0.90987087988178672049 -0.18460106062922973513 -0.71450980846615419484 -0.59460052000890117885 -0.56693853601009103205 -0.83228585109923269858;0.7786403237906709407 0.47091394552166104814 0.50419444000089919111 0.029109001985029272358 0.75579658283681350195 -0.49123161517342683879 0.4552030710883925857 0.071262116836449465596 0.86716187675013045588 0.10611332260160551144 -0.52931548383422144521 -0.9347462046106346234 0.078280020494672294951;0.35977511414745405594 0.58376937682475216196 0.12623077765248869042 0.40120944235878713835 0.71307257725625305955 -0.90847655835200746832 -0.53372287224621894897 0.95160014768870737623 0.052933494758828532334 -0.80752072831841270606 0.45030837856775751682 0.4921748707302975312 0.27342978892114244704;-0.10923224808635255412 0.40196213359687005262 0.90413083957947637526 -0.82718299559399599552 -0.41146280975610355357 -0.18870714301489752152 -0.55775332717293280016 0.60138349843986216303 -0.87933617098151106717 0.62739417578705491962 0.50591224320661398739 0.49311521458521073713 -0.016519715350601957976;0.22700058648568571806 -0.29147722486617505533 0.83682198554178222061 0.79213809970296400476 -0.08498818163210609955 -0.64869810960171492287 -0.86424210806061840806 -0.064244817339982593363 0.083599271973780350797 -0.56937821527818543998 -0.51360149901344565038 0.34037349776617092934 0.7918255000434938351;0.54088589694543076636 0.023494140569293067711 -0.32397777742239081133 0.7191481051008132841 0.23392435995840352159 0.28768517907866536509 0.98896416243156648473 0.83453910771772255028 -0.64589156366997879655 0.37596359650810201591 0.05811194936094125213 -0.84318755739131645566 -0.43959020775615009757;-0.89413476637476796416 -1.2587380169477939695 1.4106360037402196905 -0.045296181599248662442 -0.93714246232589470953 -0.2884858711885208149 -0.67075821798855506106 -1.2469670545102973236 0.055356117755884511056 0.038526488673042279254 -0.71519746911158044167 1.4408123619806616489 -0.023916020249276227772;0.44496994388185817648 -0.056075161772593334897 0.10110283717145211735 -0.5096384065231128746 0.63559512228900250097 -0.91822087110940942001 0.11437141989114263385 -1.1428651205916291467 -0.33144935940918929251 0.17407720800819276308 0.21051943345679391406 -0.38973811646668482522 -0.90911578622065802868;0.40893609564481919749 -0.26359049972480996793 -0.53179379207633781235 -0.051003990815444641416 -0.9578019703337140589 -0.4042065778785507435 -0.36240248638149757943 0.79689419937003524996 -0.51675081349332918634 1.0452485737893464357 0.39653163216420395099 0.31140191010889761714 -0.32224063768758332005;-0.76024104445915519079 0.75907627663084908942 -0.61261283797713383947 -0.5406402483423035088 0.51987350556725209216 0.80781363728059363272 -0.59224688305113726283 -0.6476546672672534033 0.099725181325831080414 -0.46786137059446852859 -0.27407048280584400679 0.28231163422919580697 -0.17039855773348863699;-0.14156198760679025717 -0.96250352745320000292 0.97964580660445388371 0.7212174851131989417 0.80636427105163488438 0.20264148623842040409 0.22982231514263534722 0.47739323414318657335 -0.55330446775997443876 0.10224325749765429683 -0.58322001179420723815 0.39645943288406260141 -0.17404375983283068563;0.81519428526493520337 0.14511179166200111057 -0.83080081518562165499 -0.69682201683613997911 0.19742734142862336522 0.75898117807543674651 -0.82616666434723540213 -0.27225153166719079367 -0.80004404194460121413 -0.099829837736348528421 0.11076528877019713171 -0.27845322034522712595 0.14081232408429161795;0.067117615216386344867 0.077879797701810082877 0.02077590345576695724 -0.045787207699231662061 -0.16065363034191984526 0.054327902407423044051 -0.9608490720537838925 0.55496259689429738859 0.22336304386672473088 -1.2534292362520698116 0.85481933131320397834 0.39512531974325498796 0.40811043535272484295;-0.70697898714173923462 -0.61927313768280556339 -0.4888270927686774181 -0.35708577586639778101 0.41382286062480244659 -0.84318790157109468897 -0.85644844766762939781 0.72722556570015361999 -0.21529795449293998022 0.44059436720386008224 0.066687858788907553031 0.14046487000592389194 -0.58020296799543691346;-0.22923593049983331804 0.61960966511409210078 -0.82315306108777963612 1.1355404023868442831 0.23398113445378465602 0.83802389120614706464 0.52957475150192445668 0.37070273077338916634 0.0063969307648995884369 0.30825347423888516118 0.76183334241560407563 0.58138109613606403503 -0.64784192723700129157;0.36244474838402679362 -0.4448234253576827113 0.61256787567859027899 -0.93575637424384849883 -0.18864572956715122687 -0.37821187533055888874 -0.2800567050325106222 0.93963206288043721326 0.19119057545264173115 0.73867203914333079418 -0.65312195086027557966 -0.038018449739007989518 -0.52232509764612167213;0.65341053828750861321 0.021098071871838080388 0.33354463096481290485 0.79714496833017645105 -0.61935135633006466183 -0.63033291602024499323 0.098120750033943410218 -0.44215967095860497782 0.69629290029116364114 0.13549248109105346827 -0.72497579371777765012 0.59655712696526508321 -0.62962217620787175321;0.71649275579672877523 -0.9187292176831532986 0.25892579675096977221 0.019513828143274892374 -0.001202092361158581214 -1.0266045199850752923 0.38255583442732021826 -0.061776551506079108167 0.35644772450321127177 -0.36052453781399912414 -0.47101038532745592713 -0.88236289368233467023 0.34748251392178330921;-1.1405857366000098363 -0.15664244816782141312 0.83403558659407583953 0.41899854284454540743 -0.47964576397162422827 0.045994358801125151404 -0.40518550269484321369 0.042775863092743532379 0.56372048447030442819 0.91329464528166137693 -0.11880754892980942283 -0.43631100267164424356 -0.30456818320856882121;-0.31905874477033013825 0.87924632119848666889 -0.087699899639895481651 0.71205283546089703783 0.4373315323877247085 -0.50229415708640201554 0.64572046133535487833 -0.56952780195139329766 -0.097996960761812010321 0.65625337548341489136 0.46367111964916524203 -0.86824743353015232383 0.33352283593842663167;0.44847788084446688073 0.21150478999451396978 0.047806020588901668167 0.48344190960075061891 -0.8658900455643492311 -0.068320523505244451501 -0.25330964738694750071 0.00090130592707830694925 -1.0300992329350060484 1.1059962465910946339 0.22621561165878908972 0.66713331262256669874 0.19494557553174948761;-0.51227317596298282965 -0.02287901562586820009 -0.73183394257654843518 -0.41535041735978484034 0.26982558396219352703 -0.29950172560136401056 0.21646223935238764757 0.35882876158639576136 -0.27676801120720823102 -0.93230177574969552712 0.78386341625575473024 -0.90864356944613422495 -0.49751576191352975265;-0.81580607825207285266 -0.95661984212491546486 0.074241495386963105019 0.053344112340037198872 0.84171498015648693602 0.37275957729681430397 -0.14916060862214119975 -0.42628806021951715088 0.87764375927228510665 -0.32125485973929979178 0.90267169174881856097 0.67470188144775256056 0.94252079469363470032;0.94069418316210362541 0.49098742524945165888 -0.14180696692729746755 -0.13000810899416503919 0.51835604665775358857 -0.23829548812666623281 -0.77123340760430836305 0.70234750752546470931 0.74872670001907137838 -0.41523446374435846185 -0.73000279291858727326 0.47269227729393192838 0.020609980579834139003;1.9562196479401545712 0.24466276755960922329 0.44128139754191636479 1.0840443589777948308 -0.78407447655415296595 0.3309948851098081235 0.64946791831722272548 0.85529185754118852714 -0.76015890757798443289 -0.099895045528752557384 0.48945832575724262936 -0.5988138542972417655 -0.15846920284302945525;0.80403515843924777684 0.84043753393825237907 -0.7744788669548345883 0.79465429184038660626 -0.57229499281153839441 0.71762239994137433374 -0.72375064519700871291 -0.31566388519306243232 0.27872275702218396454 0.43404997789989718804 0.60683322159189567735 0.1335837610593992586 0.68229967254882761818;-2.3133612700720296296 -0.65553047735884673042 -0.85451304718825626949 -0.76461635548243978011 0.15865400637495888359 -0.69447220024952638351 -0.32428341290741030667 0.65858696420083084888 -0.54565165518076463869 0.32235377421944794163 -0.3701496375321626231 -0.11060593126449839996 -0.71786962276707322328;-0.45719847188935486271 0.799587829912967063 -0.040184019085334400645 0.32778081884882698249 0.70908187381593867915 -0.69830113755404177311 -0.47544430835713086259 0.51639982995351907391 -0.12137437753740580593 -0.10367344134473446826 -0.8328402158172110159 -0.77799698978640463576 -0.40174151546715580752;-0.69929318512366744898 -0.29818324620939756775 -0.70359115984311026981 0.60375102172297079317 0.55158071469331082515 0.49166279120901473787 -0.5814885996166637705 0.8420571620991180728 -0.0032165786897082062311 0.72294942878405321629 -0.56471485816455402329 0.37106760682855105538 -0.21824851605862999326;2.3513646069083264933 0.49557321594209186033 -0.23889351993125454432 -0.11032771642739958029 0.56185234883335910538 -0.82604109303679618126 0.1877493011273135004 1.0075603256139225028 0.48598568586762486143 0.81916123990313838288 -0.6564809503493668208 0.32704323583898331496 -0.025770700030395672642;0.29283234489529247346 0.009065779437890922679 1.1992791673742255742 -1.1608156953364061614 0.2272505410175391094 -0.29189735572965747057 -0.059048467056646472551 0.68516406551287778459 -0.55526639473826389093 0.43501827564692574501 0.18561326258918980914 0.32115964142320840846 0.87892927323273373208;2.2955233552348768278 0.76672845604037520584 1.0920591541634698807 0.4423338557742606536 0.7204673886604939792 -0.49620215140548207255 0.38110295791164144896 0.46563354669171147515 -0.68979480220597921836 0.16397277033463833473 -0.45361631174716066095 0.31038538002292664908 -0.49922026468571101265;-0.88858771372064915273 0.27940815262167789657 -0.86292582316397259401 -0.089637742653169899532 0.90660705235371785715 -0.0085889191255811882242 0.54583493740323030252 -0.3781427769211042067 0.15317030951848384368 0.44622794819228150942 -0.58534782777408933541 -0.48002038859100415458 -1.0838293283713615889;-0.34005995858509718843 0.27141927504872709331 -0.92283677673779951345 0.95310515137328333246 0.81263380981783450707 -0.31209986392574795566 0.046186126259255430582 -0.70294250525860757506 0.25401260330436276069 -0.59942859508554080517 0.51491436521777167457 -0.59346729656728980373 -0.28927114972341627652;0.71132944197443859213 0.38551748129427854117 0.62241131005378813601 0.053931123006505647666 0.49157284129227502012 0.55165091604370197764 -0.7572005696961683352 -0.59919964893527088989 -0.39101246397969219304 0.27177343658284885963 -0.46666444651293997881 0.901868888053027562 0.36876756203059263273;-0.39485658816426494333 -0.58688913477586901468 0.80234114471714124139 -0.14607394675219237401 0.61243037574664438427 -0.77779731420625497496 -0.64921542255407937994 0.019897179263765951002 0.44624764207330624988 -0.31038517102815715853 -0.84745813552020909931 0.60662809190530586623 -0.30340194427670813537;0.62551048586847535216 -0.44538567153731911663 -0.3563201391757080394 -1.046763243467104143 0.53715311471008253541 -0.048173975141913523423 0.48670279957938256121 -0.85362861922399779768 0.46451353544557266728 0.036395347416485271386 -0.85252327259692561867 -0.15805856329843182007 -0.015323042608235965326;-0.60544357904087509059 -0.25198077019201486904 0.780981537449287333 0.077937712929596614231 -0.5002604797567153927 -0.6803216889501877418 -0.53618297974475881418 0.60206222134901254961 -0.37764847576814292163 0.40685680126839457449 -0.83933871794151249102 -0.70646455565619248329 0.44772313443143862965;1.4851866972887659557 0.36451038121228207523 0.050835012278373344075 1.0906086869946916007 -0.74121632932819159212 -0.5478932440853518937 0.3025132170915533214 0.26693690723392765607 -0.26974196966983449153 0.68911648613996268065 0.78729299207106528957 -0.93141344776077095169 -0.59710642537664149199;-2.3001344430263439556 -0.79044127756346149738 -0.039037159242050492591 -0.010572850280603751996 0.38060058037417371368 0.72156805125102574383 0.30109887629739306991 -0.86262196535227031458 1.0975228323013899168 0.28678263525600572459 0.23192885439045404783 0.10652873986183039601 -0.68572075475451099713;0.059738362420837215483 0.2684895703873154682 -1.0095605137720466971 0.55451773503709822499 0.6490146383948529607 0.33682432101279818903 -0.77644111605904664319 0.33565862702400051099 0.12989018520988801497 -0.39313008698930795859 0.33914851259507494685 -0.51311801202942564082 -0.84705559108606198748;-1.5267970996519948379 -0.063664706318799890727 0.32502582731087076295 -0.31262639840902151089 0.52422151254765980699 -0.82437532224402498837 -0.079144742544811505502 -0.66973479005529146235 0.010948055914131064187 0.014951249190914481929 -0.7043443638700422893 1.0385988878528569224 -0.35184892587808985764;0.84615923043971930095 -0.39750055434990139158 1.0528005077393032263 0.58064362120249168875 -1.0034357671801623635 0.32665025059003893748 0.71788051641246908297 -0.31954702199112233751 -0.27541300990582223696 -0.53917663255068715156 0.34584040225421897041 0.60857730599755044398 0.57708670898090164147;-0.8048364265816524421 -1.4786507161238735542 -0.1370972583074070994 -1.4541080889542066235 0.070983529298709699407 -0.75928432842357518329 0.68501189584959065737 -0.73465370503188287543 -0.35783077385377470847 -0.046927200127728670165 0.16387592551070739866 -0.057647856232578377489 0.94648914624591340417;0.60515487320129879301 -0.34068137318911118072 0.84973196618891766452 -0.45321179832352176398 0.80218841807436314095 -0.57225138863229696451 -0.40320702037348532532 -0.76848725159816611008 0.48852879605452542711 -0.51934738573239558335 -0.52847147147134909684 0.034488251454559575027 0.80405524704498043675;-0.2477569892624494341 -0.75036759261518337638 -0.69894662767433035633 -0.18415358827225369875 -0.26285193421589486684 0.13365221067478513794 0.89787579498719571891 -0.66645712476842688954 0.41173145972589270114 -0.74079588226302428566 0.53342245161127288533 0.75099749314424935065 -0.62688858790561097223;-0.23010251534854317401 -0.51402737208320203877 0.70371611147677670672 -0.61608731232211544349 0.070638943461594841389 0.55094129172455463817 -0.28244257417225454576 -0.70364668218086234841 0.037622808475693006458 0.72232282344148468489 -0.70406830286624733084 0.74216161987350781626 -0.60073176115424942179;1.2417047083420746922 -0.41918180670836474588 0.41662712321958067507 -0.27131404531607022923 0.11187707711266459132 0.21662155386724077366 0.45251958167856198845 0.091502920028125475649 0.46001321695072028284 -0.37904821106916158913 -0.87263621349674869165 -0.52778884339730824937 -0.5622896838889833715;-0.31356722151397120602 -0.44086241133616621557 -0.64033593303578650868 -0.71979053897214717583 -0.2700553783832585486 0.21097122232708706568 -0.2852029037870328354 -0.98176303240838858066 0.53470674299979137345 -0.86138446558047188084 -0.58618996336911077805 0.6063067749126460626 -0.30379936316117456263;0.017797090077537481428 -0.83382431791049804737 0.021038330744630646257 0.18414379018505835917 0.44637559781642971446 -0.50626778345215950328 -0.19550868842933247227 -0.47997450968680838157 0.076224819578166749801 -0.25166715399540012799 0.5115973959305253338 1.0705987926303386359 1.1208889285131384828;-0.50607509730357458366 0.71239370826573611417 -0.43674344666189579556 0.54647652741719832115 0.74950473339887824231 0.66921099633863023737 0.16234344026570682318 0.71810888582100029787 -0.36496851901135773932 -0.46766403839076398086 -0.071769584953948056816 -0.66770648874865923261 0.64140374118800114189;0.081044968643771309047 1.6243211613381138836 -0.33033102224955052106 -0.13144998954196909779 0.85115091099231066085 -0.051165658305744057821 -0.55509639020969137047 0.85545077470099151196 -0.67675740071873446979 -0.21883665322554773924 -0.79210478793244631923 -0.55973282527919987484 -0.68039137819947659302;-0.87051917546867307873 0.34136886172488078994 0.15885761726948322003 0.15236310503288461038 -0.62305480345179364843 -0.83393320260113212861 -0.022554145857166578437 0.22548073703536922197 0.44570423739860121071 -1.1583705102337409354 0.63034036367859624939 0.26565008594880462622 0.31105175351679276163;1.3243458011608713054 0.1921806752575820898 -0.18628738259342422778 -0.50469393616238755751 0.67252073298388015399 0.14511486689331717925 0.46652920240912298944 0.36085384426409511383 -0.23910097397380006279 -0.20751874930067551461 0.89112062736233421667 0.24800705509717180242 -0.63123256184784948264;1.3404462234929694908 0.089472039283288132272 -0.40081453346037743124 -0.11645701222096953298 -0.64862134422523876065 0.40282151244070552032 -0.77453196705042937076 -0.31654735150574486724 -0.0081123757873133410523 0.5970097306792444547 -0.41780177948101315799 -1.0855929724792174884 -0.17680495081315708572;1.1065566747831454553 -0.65530318123736897018 1.173345653920562226 -0.0089281420433110544183 0.57355276603979199468 -0.25914756072263234188 -0.23502559527998873046 -0.46339553029195995615 0.57999711075331605858 0.866051946225948166 0.041690280190906155167 -0.26782102354406456257 0.49505683410818829282;0.25587324316047466155 -0.63660229367972376302 0.59520689005303584196 -0.3401068536893715466 0.63664180963514116485 -0.86640958949218882523 -0.71999950565445358652 -0.68975593760304110269 0.84041080802475309763 -0.12406775522697166547 -0.67275520359675111681 0.5021704245350956386 -0.12406930029982153607;2.1234805861086734069 0.29454815311205978512 0.78313602655930381058 -0.72391392437057910936 0.58756955419831558007 -0.68467400724223137498 0.26623344813741084414 0.49419182735289318709 -0.31790109867333771199 -0.43434528685414203197 -0.08402216520302137337 -0.2468248264746203402 0.29117149361537691954;1.4280343175266680955 -0.30375762730426519864 0.22181496381311113786 -0.029928068831816801582 -0.080916300317787653862 -0.62670906688401495366 0.65352589787831394386 1.0793393946923006688 0.52853517559292195749 -0.76408594442535970881 -0.64972244777780208125 0.49728065054014819468 -0.046222675454264824935;1.6544864577814724083 0.36451116466736949162 0.59854623460867506513 0.40633628368308699619 0.30027352732487039289 -0.14783001491521721715 -0.36789936117246713199 -0.99859742380126159667 -0.69624316943283104386 0.68609441851599684004 0.12523251415429986766 0.84889421281163168764 -0.49732107432114713852;0.94302915394775221891 0.13459972931723848677 0.16516751491278239272 -0.10516123811813002376 -0.27975678892128896802 0.62277090466168372185 -0.57241726135002879428 0.66894295639069156767 -0.035322500524390926246 0.81189199590533411843 0.77557852202887411774 -0.81160270914584076163 0.36419180414513890875;-2.7916399491663996812 -0.53460263891891579568 -0.99150226465776658547 -0.42901226837106637424 0.56234991619089658155 -0.49131439835717399811 0.82584593236880243783 0.57730280682210166621 -0.54078042364090006533 0.77925807690500592528 0.69768970112771100389 -0.79852542352366973066 -0.72141168163901514543;1.5173456290018001447 -0.46924504168925340597 -0.17995397323402795298 0.46089711878048578164 -0.83932425947852429271 -0.75842282769419333555 0.7538744626316444819 0.6478275592724616061 0.45391288326861040092 -0.10983105773496182334 0.69974771409429925573 0.32535368442078044238 0.46225123980715454586;0.28932394668148475603 0.47684581442075990587 -0.85817341506329358758 0.0026050524433427267416 0.39680826190239504303 -0.2699737204065491003 -0.07887805413307071023 -0.11319622460535817832 -0.91681378589202011664 0.20434782745142673899 -0.66784376603861272947 0.92179373818010834629 -0.70054176255445110844;-0.14681746586372448893 0.36436099934161675362 -0.51357011663951268599 0.066674049366583082454 0.58560856478542633319 0.23418750744592525814 -0.25392731385903050123 -0.54084272310063541411 -0.67411245186241630645 0.30823929219320972406 -0.80594412956972405482 0.65870143475400355637 0.43439632907076269897;1.8623143076291965858 0.17736834296509140785 1.3259886999701389065 -0.43892321699107000876 -0.053592507880347750593 -0.35146916817071727213 0.32289587709671435656 0.07351716675370867371 0.12883787123561912802 0.097615014381705542124 1.0706092338299464384 0.33492743636153443632 -0.77708236505461358856;-1.1130307953768465712 0.66135074881583455486 0.42142184757039002907 -0.63566529816681338616 0.65042402227500717427 0.61531818484708966643 0.33825941355831057322 -0.090549593089339672214 0.5122035687558620376 -0.68153639187025993884 0.52155064263122319357 -0.68358721760119067756 -0.38719580900525862877;-1.9393731587775955294 -0.28168231147259747971 -0.49880117008291341429 -0.859547759552992785 0.54026726998531948709 0.40952075202659227182 -0.17574548341217413605 -0.36703154646126678884 0.77366060601500863392 0.88027044096941919893 -0.51731304474051720277 0.82324281986378622378 0.037821067378547734705;-0.45885326805501264191 -0.28394446418999080839 -0.98842966834511847285 -0.58333278157875223524 -0.48213198007857543947 0.616686303680303749 -0.80825476043289945505 -0.60956195819416825188 0.15969577098735376897 -0.38734632762560461394 -0.77093676519429876759 0.12543518433932412948 0.16489179521540270335;-0.87130774826054324667 -0.62106313814807456719 -0.019550129358931443019 -0.080307343245803491927 -0.46246111042748361264 0.76283892247933127173 -0.49708202866034661982 -0.73817457763217164679 0.32155743269920328276 0.57196975286726881027 0.62226281775991065803 0.46117608786097030737 -0.42797795874528316018;-0.10194201693584734048 0.37295823560178265055 0.085573116690142031482 0.33310299274387639157 -0.70118600535958730546 -0.6890024385361529502 0.12562395969523384998 0.65569003225180888528 0.65143852483000486142 0.65340322093792557734 -0.50094076040580159948 0.7711073026875416847 0.77321798615396664101;-0.14986057514757541997 -0.62167171402980436756 -0.66724437793550861464 0.78061675493089566213 -0.29515815795636274332 0.7498314310986958775 -0.19863531162653944029 0.71352828656753364278 -0.72892678872057314887 0.41526869941885896642 -0.48911289491214399172 0.014874308974879686673 0.48290518736287690871;0.23252985970021686213 0.56971096952157784798 -0.1658474457857851414 -0.30504115372103934867 0.49765679585829991627 0.80681091344979549707 0.79719673519800071659 0.49881197974558416641 0.32936000616196570157 0.61192073878600805603 -0.70876673377549836985 0.47220877467421951135 -0.69956987215461430285;-0.30199632169120249614 0.87514983404597457284 0.64299135516398664425 0.65018471878672312592 0.581004902638294074 -0.063199976212076472426 -0.64597232070750498778 0.85902995671986670523 -0.55685035370416557932 -0.62303292330145088052 -0.28456154965004376578 -0.34946125091856278244 -0.39005100378549606432;-0.33844682533676673231 0.31714656765733889587 0.47601249633696324226 0.52730092549710239069 -0.39691981304808893194 -0.711623457352761557 0.64775642342675276986 0.22431734351997489885 -0.73626686037404220908 0.50473631356308468199 0.66178728274311870994 -0.67818713418997655928 -0.58629460673623656763;-0.60930435441468477897 -2.3971895648437633319 2.0245912792810969449 -1.5912721091356223369 -0.90768347951214889413 -0.83928732600008137954 0.27249775214736582374 -1.1184299895359128829 0.11546076218315262651 0.49141375842665885321 0.20439985611835398416 0.77548307665619686802 0.041399819607704765878;-0.036744485525888020971 -0.91934420880479938987 0.45706402711184429544 -0.38206334855687290597 0.61570105964417398692 0.65263588976297381983 -0.1133115328847930231 0.50409105656894348524 -0.44104421800028265066 -0.6027729938532810916 0.8652750646462832318 0.076288944860865806619 -0.34101699712636551753];

% Layer 2
b2 = 0.047738961295430350218;
LW2_1 = [0.87449847736185726266 -0.28777467361130670831 0.086083203629186449968 -0.36019115769975817987 0.89274739166095062881 0.34342328082815160029 -0.089818789726954326169 -0.21965461215851375676 -0.48409511495026341654 0.37452029125568153667 -0.36912488611871513422 0.47428863193605619308 0.16980902401638497956 0.18130829336443332611 -0.36164121172124413794 1.5034544574125658922 0.32804199841771353174 0.1388741083750092975 -0.49618884284666858742 0.52687912982757456604 0.12420116275318565657 3.2645659195805238895 -0.51577211222858609929 -0.55933227614641345404 -0.69874067201011957895 -0.67555814022783977624 1.3142569973819546725 0.20349190449353349308 -3.4181608401211462933 2.27063287007361847 -0.081829640365583447559 -0.45591163051937383388 0.39534231368891198377 0.36357148774999459295 -0.49094592782322055147 -0.3477037798008791869 0.67235459643844130984 -3.1285870275582854383 0.016019279460007425364 -0.34721302323069030971 0.17317430409541015313 1.8924176287013305675 -0.22245353605492224069 -0.37546986169757778917 0.19209090845653928326 0.54689854657811298733 -1.6057659025787922591 -4.0522975891025954098 -0.62963422774662292092 2.450601027502154583 -0.27425493877757134431 0.0080120131568865628896 -2.7991361769792715286 2.079181586651001723 -2.7935648285711178751 2.495848856828229767 0.087107475881367441017 -0.41883007906718983104 1.9309466703551760869 0.079215435358662975029 0.44000593535792031918 -1.8607301542472065581 3.3326604166603317481 -0.33306237360649104673 3.6834643869911949388 0.27435009261557424809 1.793880777362627077 -0.077577375600384024246 0.054571857294534745209 0.23453122944067539279 -0.61275924089782429771 -0.71161659249945974359 0.21887450273919226151 -0.47953523181994767155 -0.24571176412919734644 0.5104485257879587401 0.045574279750462846905 -2.0282802446086232173 0.35969246357777850953 -0.83551269823158658134 -2.7591835153389636659 -1.9813006068241971747 -1.2964363193682080233 -1.4181060213125229463 2.8948583692333351713 -1.8260142359455506789 -0.46237535643640242933 -1.0188627842537587576 -1.7154696354612690712 0.98226741391072358578 2.4447685430473207191 0.43563886969305781749 0.55682395211618362918 -0.10344885970429457123 0.31508770389103546439 -0.059589453445324437608 -0.36212202034493629066 0.11834875610391641654 2.6614673946085058986 -0.10854832927130714237];

% ===== SIMULATION ========

% Format Input Arguments
isCellX = iscell(X);
if ~isCellX
    X = {X};
end

% Dimensions
TS = size(X,2); % timesteps
if ~isempty(X)
    Q = size(X{1},1); % samples/series
else
    Q = 0;
end

% Allocate Outputs
Y = cell(1,TS);

% Time loop
for ts=1:TS
    
    % Input 1
    X{1,ts} = X{1,ts}';
    Xp1 = mapminmax_apply(X{1,ts},x1_step1);
    
    % Layer 1
    a1 = tansig_apply(repmat(b1,1,Q) + IW1_1*Xp1);
    
    % Layer 2
    a2 = logsig_apply(repmat(b2,1,Q) + LW2_1*a1);
    
    % Output 1
    Y{1,ts} = a2;
    Y{1,ts} = Y{1,ts}';
end

% Final Delay States
Xf = cell(1,0);
Af = cell(2,0);

% Format Output Arguments
if ~isCellX
    Y = cell2mat(Y);
end
end

% ===== MODULE FUNCTIONS ========

% Map Minimum and Maximum Input Processing Function
function y = mapminmax_apply(x,settings)
y = bsxfun(@minus,x,settings.xoffset);
y = bsxfun(@times,y,settings.gain);
y = bsxfun(@plus,y,settings.ymin);
end

% Sigmoid Positive Transfer Function
function a = logsig_apply(n,~)
a = 1 ./ (1 + exp(-n));
end

% Sigmoid Symmetric Transfer Function
function a = tansig_apply(n,~)
a = 2 ./ (1 + exp(-2*n)) - 1;
end
