function [Y,Xf,Af] = edgeCuratorNetwork_V1(X,~,~)
%MYNEURALNETWORKFUNCTION neural network simulation function.
%
% Auto-generated by MATLAB, 08-Aug-2019 17:39:05.
%
% [Y] = myNeuralNetworkFunction(X,~,~) takes these arguments:
%
%   X = 1xTS cell, 1 inputs over TS timesteps
%   Each X{1,ts} = 11xQ matrix, input #1 at timestep ts.
%
% and returns:
%   Y = 1xTS cell of 1 outputs over TS timesteps.
%   Each Y{1,ts} = 1xQ matrix, output #1 at timestep ts.
%
% where Q is number of samples (or series) and TS is the number of timesteps.

%#ok<*RPMT0>

% ===== NEURAL NETWORK CONSTANTS =====

% Input 1
x1_step1.xoffset = [5.41560774145524;5.20620760404711e-05;0;4.42857142857143;4.22222222222222;2;4.9192688265437;2.60310380202355e-05;-14185.29574664;0.606195386612477;0.0818911622308639];
x1_step1.gain = [0.0468904911908487;0.0470482019031314;0.0571392950353053;0.00396375990939977;0.00396410284644607;0.0169491525423729;0.0587843022197009;0.124129609659526;0.000141425199044778;0.146928749061958;0.420865116073587];
x1_step1.ymin = -1;

% Layer 1
b1 = [-2.0774702369863122797;-2.0780371409002222904;2.0373210679225848274;1.9070871931157262757;1.9799336356895349542;-1.8477378603445273608;-1.7996772646117420447;-1.9698539531415419912;1.820250337370880489;-1.3971074472858540094;-1.6984060575612742738;1.6261661653981160924;1.6000641073882881926;1.5271553506314750059;-1.5356176253932807274;1.5111713543774198953;-1.4327904075665898187;1.3474630045425268765;-1.2235786866739331025;1.2445910107240252263;-1.2622153414376331426;-1.1985620229290920857;-1.1216301972268427622;-1.1750107747842504224;-0.98072047030406461765;0.90844451569395212598;0.91501333708998700001;0.95730721802825913258;-0.80904171125889989824;0.9713129384063978744;-0.85258095803841738025;0.78037343061649189213;-0.64162660848743446884;0.85207106806840138269;0.71700893251981379084;0.65349605801616550416;-0.49868027437648443367;0.60535876821184786412;0.42922831619840529083;-0.24886407284958611541;-0.38364570932407981996;-0.44244042973216568537;-0.29772776696761110715;0.20764973005357070801;-0.048351920055043413893;-0.19632966955736996795;0.17893878346402972146;-0.077230921345934094857;0.047741778797671802215;-0.13970905204451103399;-0.043959361191896806353;0.13126993363333139264;0.033077238283111591588;-0.17860274797335490282;0.14189262877662850437;-0.37306545328068863032;-0.37610055494189043035;-0.31931305926621200708;-0.37020395697822100489;0.41579532718544892633;-0.42113611690412555699;0.50259822737687376293;-0.55285789424012121707;0.64960067778509977821;-0.60994443289512756401;0.71582440006312431091;0.7486070523834882362;0.77862798703405300405;-0.78518134218897084331;-0.85612168731753268691;-0.87768407143058557729;0.87958823630557758655;-0.99991446595546440435;1.0729829685185925392;1.0704365601897463112;1.4573224552579022717;-1.0530061468807692115;-1.1280267650025788129;-1.077116627184270925;1.2628794042496009897;-1.3466776358909673394;1.3438212572222365537;1.4065090072601820204;1.3766548327042771316;-1.5040770832302035043;-1.3999078458201472674;-1.4934425549036154379;1.2436428652216049429;-1.6506867324989782375;1.6977556680340488704;-1.7606046003051254445;-1.7955042555067728394;-1.5488549307174905856;-1.7297673860067390716;1.9090914246983496927;1.9467376835573866334;1.9045651177638145413;-2.1888367502876766579;2.0815347131595176577;2.0512457858786232734];
IW1_1 = [0.60153330032169094466 -0.40321119419911466419 0.67538101056476385065 -1.0898394054219071592 0.43674226302874508132 0.21395442997627414639 -1.1262390637511607849 -0.64533543178476171498 -0.45653851405210033043 0.5354438014308060545 -0.16546746688995203622;0.41561531762658754374 -0.11679023612926205111 -1.0915857451913346665 0.62883287363617634824 0.43657055697943425443 -0.85693948721622081877 0.10076417044054983285 -1.0301533142800733955 0.26601740931375350563 -0.89596115994445546526 -0.88710457446882795551;-0.69166863471657724638 -0.2182618798694827833 0.94020732436590426229 -0.5133699076846865994 -0.34125437765461913431 -1.0058628031542165004 -0.30369903607622578123 -0.12843417459091005517 1.0161794059552398117 0.4002499270730145442 0.66148314241641503752;-0.008342919180789810929 -0.84052907586189107292 0.56438141344290881918 -0.21179926168486470917 0.5077196311762313119 0.62531233674894604047 -0.90111585916720038369 -0.98339946364209718244 -0.27955612373515459357 0.075370050461117013563 1.1456571889451847568;-0.12588845073313612022 -0.67707682274242353415 -0.043288305337916964388 0.1045770402767698809 0.45925859291091591929 -0.65156977902445623041 -0.013434251927024203413 1.0266903413983230475 0.52431279697712285248 -0.75424628934679072145 -1.2071710127349066788;0.30160256082171577052 -0.79683149935556607524 0.12115880341995031999 0.91090804627359978074 -1.0624735801610545316 -0.15275444211046954046 -0.66385541338849562987 -0.65129125956280708998 0.64321541408771121251 -0.93978021412386691935 0.022811280573453704412;0.52176893941214119721 -0.90145822699562438984 -0.62226562884325653524 -0.53644567330621351076 0.19236906967514075251 0.93454799310819591796 -0.79036269192040453646 -0.95250659451031893799 -0.30961950076810484944 0.83279332716366072376 -1.0610887007810263505;0.67940360512867870035 -0.58243912764788086101 0.029911859862521691933 1.1853109730634132646 -0.49924688179131310184 -0.23688387530307505879 -0.66640351788943263944 -0.40089432539634695107 0.11950679884516544893 -0.53008053051350900731 0.931446660895378864;-0.41623423445635765461 -0.20042634279474472181 0.88778504649718725794 -0.35171766817576699538 0.71442559534594884951 0.49260723799602279538 -0.66694272243316277127 -0.11718512767826960719 -0.81385426875226096755 -0.6033841911534678637 1.0093408910093186748;0.22767441670879190463 -1.1590217495522907587 -0.13412290009529886925 0.3277466486020966796 -0.64508192384268381314 -0.51638351038124763459 -0.74273487489847023202 -1.0529676968610646171 1.0761914571975166321 0.10898707660620973736 -1.1622467190881766719;0.30836248394240983739 0.80002690052442770874 0.04363162825655228505 0.32581558025556944802 -0.072936250306127894949 0.36712524636849364068 -0.90670892272471681483 0.9832874013868851959 -0.61741448486985994748 0.77861804774240017668 0.87005157097644125752;-0.84562108883058861863 1.0805774595802672966 -0.61673084498700192491 0.14089703621495353048 -0.18815815290367127188 0.34606912388237159872 0.29866211417402155348 -0.4033356494902413103 -0.5894079109759572388 0.033922181572539775174 -1.2543173101269275982;-1.2157582584914712331 -0.003334586765047348883 -0.0061578384377309856867 0.6647726864794173407 -0.14538850118774188092 -0.16171638559174139615 -0.70968484887916327697 -0.62829593493426005857 0.95030771619183151966 0.65540443035362017099 0.61572856271013609586;-0.031762292838958414154 -0.027571842322413733783 0.32630503618618139638 0.45153914593420307888 0.74720765409143374836 -1.2172297305931656375 0.075695844538151230152 -1.0649280867806063533 -0.063812803362647704808 -0.83190792346704378613 0.68380953464153493293;1.097014469314934626 -0.38805820588116340941 0.42955656092384170153 -0.75886742160261544399 -0.40931348875711426327 -0.41758566846177136433 0.46906680238987008558 -0.48020923611086857585 0.6325946634167003424 1.0917895951109870545 0.076153242574441226687;-0.41163540675126131241 0.91980494808752366609 -0.21563696080431596358 -0.83599022844736170512 0.49153194461400001591 -0.18476267725402692466 -0.055232753277138474379 -1.1263499294175065568 -0.30770958683562527058 0.16800826354274284169 0.97800725885801498283;0.23376405053631515996 -0.35681719015790641647 -0.36281566907489959384 1.4055180913853220215 -0.080112349614041913903 -0.66112265428606065143 0.085703594907017413562 0.01763271143338573585 -0.6153333740504188798 0.48447992463685446429 1.0934194414499123216;-0.54483273626948125479 -0.75383781820766493365 0.88494955313371381767 -0.61325873371699779479 -0.79887308260109946012 -0.56484078017081185141 -0.12494795469673361521 0.43973997454561991605 -0.94078543879843368192 -0.73889847475975367619 0.19351497190356758971;0.38116142425162480301 0.37231027405660727103 -1.0019461121706478846 -0.98930615698392609936 -0.57497129794878409914 0.70792991138850436261 -0.80566680867419382395 0.11880307275492640873 0.40487666333614757974 0.51135105855409190845 -0.8571695089344167906;-0.69185222140619162534 -0.26993521735655262583 1.1305891452971625899 0.210826066298175685 0.61461268659243706303 -0.22817842546876243581 -0.042830492047793017329 -1.1006421439527125372 -0.25228680946187048706 0.72936560540938655262 -0.78116251051098994918;0.015113082472921847421 -0.52499820869211333285 0.86232610604863757509 0.77505467708598640986 -0.067491984063187626663 0.80950876486133127585 0.71153695267482930387 -0.85072308623347914214 -0.10312875933853757338 -0.77414279456287116155 -0.6428263919511525426;0.46165502507329553294 -0.2574383225729854896 0.78604079953933292391 0.549731910120830225 -0.96713468875004415803 -0.25746050293640099227 0.85499076512716709608 0.65249134053896828966 0.19654216758869813564 0.14917757626298902562 -1.0259431479185678882;0.7074460802544242366 -0.83094530050745740724 -0.79085240465154116318 -0.6336200623411940569 -0.22576937461087626113 0.5383569422839513674 -0.45959518589723202808 0.71705958730660201983 -0.80550584207189790398 -0.36696221375598991887 -0.81073132063867825448;1.313813902492643626 -0.98046027865567975113 -0.62144010499103463641 -0.35491759159537211721 0.2926017296371862253 -0.28547701409625259039 -0.79973803096618401032 0.13959665396849085806 -0.52535409489702067365 0.1371227912227459822 0.35100479877746809665;0.23001359100809137814 1.0161139240101635384 -0.44331737475810678584 -0.17072047587073990726 -0.56459435723851436606 0.84907380962898104659 0.23970997425467593933 -0.95969193191690393974 0.69201752292554252755 -0.25029329803588740155 1.1645428362774123965;-0.76614023870730751931 1.091215608472325016 0.33811174062793963868 1.1659858015691444422 0.61525499306728281823 0.49208045307118519762 0.41885123546362307279 0.72594243721800899571 0.42855301216675056875 -0.16505558778498527484 -0.26033750115568271566;-0.91978423251637153601 0.18456570671505342918 -0.87229092302926580782 -0.82349349118035841677 -0.6758790074248134383 -0.57441359799577529355 -0.2463473847962096841 -0.38498956772123793524 -0.98473294791089427402 -0.75158618344083016893 -0.35414097198467969774;-0.52914905767117570434 -0.88922608494413657443 0.43200606054637191722 0.70247884798948023732 0.81488883584495164225 -0.54952937230555143344 -0.60989512339690976628 -0.42198606150891204702 -0.72686791919981241783 -0.46616686974078741512 0.87653649460317961672;0.68014243882222336079 -0.50996544652945019482 -0.77857856369663858143 0.23691771191740562674 -0.37453011740110186967 0.66885551759445061037 0.85314289757038896944 0.41644704549136035698 -0.65024654632837075585 -0.9419795344509380719 0.8768200185411195724;-0.42773891317981616034 -0.41807441549346330278 0.17179525812969534404 -0.16363859163737495828 0.533605749984997213 0.6945598464074265177 -0.6942155681943099621 -0.99743286181571388926 -0.9773107420808289092 0.84892024674297383857 0.20365953386869742325;0.58084711999529736737 0.6048778390989939524 -0.05607345592202557516 -0.45315648957038295874 -0.65522249913196684012 -0.48654100883849477066 -0.84697434555474226947 -0.96869818701213949996 -0.2235221239325919651 0.37173322585620399705 0.9644192283680717015;-0.52670236473901432817 -1.0454750613813172944 0.68678465775592711928 -0.12516263515565984044 -0.48652114015446573658 0.40621276526641092453 -0.78027022863737449665 0.43548207269134514563 0.31422955570583099849 1.0026340123203749677 0.62486754127124710667;0.8782091866485629561 -1.1706867724202707493 0.3458816161348804985 -0.09300197744293217661 -0.82899837497336137382 -0.22076549615339627342 -0.7791684875771531793 0.082575045500524607567 0.5235433193556752185 -0.7736500484541500855 -0.49097654607087654055;-0.4620451949252811219 -0.99832905085438961024 0.78456931265356588678 -1.0104465506804178876 0.28795647249002653822 0.5903452252715366555 0.25421625480193743574 -0.092482689467178177956 0.14833582928825120306 0.9357378554619005806 0.14974843490014649872;-0.84443164481167765079 0.2543176356880639255 0.89315018638372722926 0.15394095774820296119 0.44146312268389414912 0.59249058890994543702 0.10401052906924893038 0.48756343837989296608 -0.93884560687126672462 0.68850131995329666434 -0.77261752790186655204;-0.58873748750381449391 0.67940190383815135533 -0.39659132781044237337 -0.76331618720989891091 0.12435880400116400279 -0.78501097074124026598 -1.1628934630646552417 0.59923998731633909554 0.40378694214702481879 0.16095609414668488046 -0.48306688508546130612;0.3189340256462946388 0.35544013585903933006 0.46328911587050308762 -0.3096078227199907662 -0.21853687778944871911 0.98479488819038218939 1.1363968557950834271 0.69228638833215228043 -0.92877914570901110025 -0.17422874128801973947 0.48881758178513429192;-0.046229103898482372392 -0.179505758770816648 -0.8030741453822329845 0.17360125803693443602 0.32949601155148244835 1.3191732343834545738 0.61387674143814041638 -0.60603863582732475646 -1.0356874545352081629 -0.56424641049946866467 0.092791771811476353449;-0.38352390678607689578 0.15743716141786834317 -1.1359545930218186705 -0.66289891763340047515 0.47237799026480392639 0.088340045749010623344 0.61920400346072723696 0.55321052644571289125 -1.134426907004615348 0.7194552433294706395 -0.21653683783273686148;0.94543937082261741978 -0.40793800752213371652 0.53940900438624594937 -0.40825145465679085754 0.32365380371925778213 1.1200369571519055434 -0.93535229823065446642 0.11927911705952437549 -0.73273179165517510203 -0.65570120627250194634 0.46457649673619694219;0.23942069104159033333 0.65230556658085248056 -0.029951477404043934383 0.32777597019067833406 0.37964287750139885658 0.31485740154007790803 0.9945106008226657357 -0.29577845418706422143 -0.89493918332227972989 -1.1780498659477098844 0.72790943065523316946;0.17615860609765546241 -0.59638217219884082088 0.060651488621356615394 -0.55922923551897507632 0.96351789103816931625 -0.5182274446076846619 0.96281314341962154213 -0.83863458889536779406 -0.81675933906586950517 0.7206321740587022795 0.26756407744438864826;0.87146124290104376442 0.39116695841767673558 0.84626164973881856657 0.70006159903851961079 -0.62767699359676132342 -0.65109282478034224972 0.99851148246545939902 0.57736936174049180437 -0.36946013274523842318 0.34818470010051033592 0.10242853399462396868;-0.53044203622569130463 -0.78827551126990846875 0.39219206719324845034 1.1283999874994392609 0.42700568029173485707 -0.11613061236957744615 0.92254274814238479419 -0.37863384017624535094 -0.58270815102797879348 0.63822903786026974338 0.26487082536507222663;0.89079091309460589621 -0.44384812372224441424 0.2935170964680743344 0.57298520740558578357 -0.71013286184540547197 1.0906964613464962266 0.93801422167185755097 0.27730924082819430332 -0.69929357840979167182 0.30108414691005380703 0.1280556880983728385;0.72945065242331108557 0.39182998845506744612 0.89486795058783541457 -0.5261043998517633824 -0.90567889271783907912 0.88466294890846286503 0.11521412806057362843 0.62731543139257017749 -0.58768625441031074885 -0.18638719535075565226 -0.92375393157162566382;-0.31094652176625775519 0.65654323896306920894 0.65871454028101605882 0.18493417335043541017 0.23659801525130635946 0.66238464749834768952 -0.77638712113885188781 -0.99661691570228405634 1.0142492216323693022 -0.30942286838467436549 0.49338076530665442299;0.18889525085156819162 -0.91764130188522019527 0.19837240751537488226 -0.88329582236176984456 -0.13312953774049146594 -0.4023939657615383525 -0.2172094015930288724 -0.80313647167876878186 0.45433679826274891989 0.70685900516600963517 1.1153386271219389858;-1.119048324610474765 0.89159610355574847596 -0.78040851736721084109 0.95113131336025924512 0.14281815818373885807 -0.080056312080597061276 -0.9432806217785104641 0.061344595762264968186 0.11622934065209117316 -0.46496172077343600471 -0.5467069732022907802;-0.74402840239134171441 0.60398250278749809894 -0.29461412407882869857 0.7922021582416647334 0.035453899808539496297 -0.70794789778471556296 -0.81481584677069918143 0.082287004361911594841 -0.822984111501197102 0.78623395083619029844 0.95785877313079803574;0.057151758991829053336 0.013648593100886839344 0.84702419397096129217 0.61387498157084463557 0.59628580210754922319 -0.74122102805918155255 0.94045891502583167654 0.87799296916080593611 -0.61371320963128528359 0.59794769464728636521 -0.32753755973872328289;0.50759279941696766603 -0.20071335741416115872 -0.97146163136733210131 -0.36060603871574448132 -0.30812207908294347858 -0.833942420738485235 -0.47587947403168634475 0.5382611371886198981 -0.87131650981588870675 0.70363690645934018342 0.74340052066645023743;1.2012407494530561447 -0.15264929502689195129 -0.14153876663245978929 0.16527966418502418322 0.59499818414936556099 0.25623671413149773368 -0.59762222560337119326 0.63398768498842894559 1.3889955630524135621 -0.13765246891275878527 -0.25220321800805667323;-0.93631766478861233605 -0.48627518844760908578 -0.76110870453404821934 -0.96323979388662683832 -0.37174871778199020111 -0.50488756896699016341 -0.47869957118700368071 -1.0992152667632517637 0.45133678913099556373 0.35760711053729182796 -0.35826508358544401078;0.17157210984528128983 0.083577043955078755832 1.0750621651543175172 -0.11759301024497777199 0.8006127084681107231 -0.75494047857972923499 -0.04994323997171239149 -0.90485579102768776139 0.18122250122730423905 0.94663151111984900066 -0.62141750570225950945;-0.11375036436079281887 0.06562432809454954441 0.74822096051547593021 -0.49873200217461605144 0.87260288972051158751 -0.0034389127081374259998 0.39203808939092810171 -1.1024636667868834561 -0.70967910063644334961 -0.013747955876820084492 -0.98889253175590030587;-0.90420466632231455417 0.67219099153153416548 0.032806092450589609266 -0.59391901201226360296 -0.46961951492837705757 -0.67734875506262715028 -0.8683199934393240893 0.63254980177827146992 -0.63915122252417444493 -0.81731244757031684678 -0.36248044143954988305;-0.36066227475114676082 0.62042023007721947003 -0.078775582396529250651 -0.71138806338237536853 0.2798934629093730031 -1.0236628164809291608 0.75862717757886910519 0.94715776394517936509 0.2536246205030884826 0.81210073479537792096 0.46497388084070023773;-0.80980712369230500869 0.3256401087554661733 -1.0489225335929304173 -0.17280869138408067043 0.1921927846717867705 0.78410110939364308091 0.12515516587402120141 0.41249496562457171889 1.1561490020633298226 0.28554536519183204568 0.64548822043748765864;0.73007114554999974487 -0.30463514269440550297 0.45343513692909503954 -1.0091388863656149955 0.10942214353729992626 0.14316753999122108776 0.87498240611557387414 -0.91591218623232917295 -0.81346374947614419337 -0.36705920538092706717 0.47219135192224370723;-0.43159220289609545596 0.42379022617702954978 -0.88474460530728094021 -0.1528423994386173268 0.70763526245286656469 0.83658869499687937843 -0.33167032287595893392 0.33136075751929650046 -0.50162409103770100316 0.93591058066546406469 -1.1103348268083659267;0.075752380236205868469 0.088506305670727744572 -1.1389597904770356607 -0.077791052117406708777 -0.62186515947535070392 0.51543894459008621212 -0.14851155067128588017 -1.03768263925215809 -0.26410851069775209687 -0.74435650244274986775 0.9045614790265348315;-0.75348799189172188662 -0.33222451372200934028 0.062015877878894724862 0.50153677212781822004 -0.50362798851594270388 0.1094116940877771782 -0.99814961290545556327 -0.82436112009104856035 -0.96178412373137067704 0.34393454363920056283 0.87219059183713087968;0.2236275703504572443 0.92600031754114575655 -0.8634999834803270824 0.42629699579750957028 -0.8799505533741885932 0.95994119819227807788 -0.7719718947990671376 0.27635204880928365689 0.32596871180656078471 0.31531797193088578757 0.69751271703530570711;-0.45503283819401535437 0.94793943909711242402 0.72815422296205056796 0.53964686125726923915 0.87989732969861833567 0.76259879985743406206 0.38578048995746799799 -0.30421431983879354544 -0.15291388569887140458 -0.27684831941330523275 -0.90901782977761402815;0.29062263357167200661 0.045923888589809495897 0.61683256502165451085 -0.9495081887850475022 0.23928155853053303947 1.021785254598796655 -0.37718472170556088807 0.26473873651922463779 1.010349718781783368 -0.7407643056214642252 -0.26229566257281522468;0.38520369019534472788 0.25782109458777902056 0.37441430454834262465 -1.0043384135582704708 0.081003640069682691927 -1.203891251482793967 0.84398706140540391551 0.48140205897627169618 -0.042363728835872992151 -1.1144832987214439157 0.40096987194717598202;0.72666663771648187797 0.23482874374561596431 -0.95144305555465702451 -0.46749840074781745525 0.28510490562755941291 1.0464969363667513402 -1.0096970000583171956 0.22312733608502768878 0.28118614048496759494 -0.15729144548003101689 0.69898953210689296345;-0.12576794299396154564 -0.74023385727064083817 0.39879553857371247139 0.055753372395662997851 0.12315852563256701746 0.28241487531155901047 1.2198103997052462955 0.59520776335628677867 -0.86157101574463401672 -0.79859599721150142937 -0.70194637082664579353;-1.1728949157733183917 -0.64259802621316508553 0.022905346363268044158 0.28581471317937096055 0.18474742814568237415 1.3350249369331728122 0.038770481059768553689 -0.72674666178229385682 -0.37980373110965270911 0.5915197740339248611 -0.74932765689305347312;-0.76107755997663140146 -0.080150443139283669702 1.3339724076936405606 -0.26014260524639060135 0.12320149990397732953 0.082214635453585330205 0.58601608565897234104 0.66378869038363974564 -0.95305107470977312722 -0.36702919475476342148 0.49157105007684398501;0.82794902185832475183 -0.53080603525269121068 0.27274215128152340393 0.70750834545859797586 0.46206700101734354824 -0.067415532824529597611 1.0264042464434095514 0.96139074774534272194 0.53784610640261254488 0.71037539047680120508 -0.019689561179774286992;-0.80984318023681234333 0.78874424258142294963 0.69154059662071643011 0.49124457187939263303 0.055652005062205793517 0.67098528434090232153 -0.48176921123478300135 0.84586891336534597574 0.82510964226842276048 0.56247746769332573891 0.28150899280877778041;0.72533273788432306439 -0.62885490142090649801 -0.097507306888509712173 0.97783737616476651411 1.0020233266473794753 -0.52987714060189738952 -0.17758444447054164139 -0.87093634091553773224 -0.26665807168164118446 0.11408377942565961494 -0.53877752763481190357;0.12770972787625148315 -0.90499047736152216093 -0.23272118215694959087 0.093734712582469445485 -0.90693627182717828639 0.011888187183404197791 -0.11259251099318712264 -0.44966956116890405282 0.61646035316962177752 -1.0607506127511510119 -1.0505538203684634535;0.79247895893985254023 -0.93639609548463575983 0.34385375146650987155 -0.37626206122964345191 -0.76960764445077256557 0.56559066852290496019 0.36088049406915279071 -0.52641057993381423774 -0.15941834170820559646 0.6605618565181485824 0.36960333910626902432;-0.9501418968082759875 -0.67195957763328206802 -0.87538851282252350128 -0.97791352524745822627 -0.87970754212776747227 0.33196876076524023391 0.6176314025333523583 0.34318144944533623963 0.046676402501146269097 -0.50753961515848433628 0.49123426463189084901;0.017263915834966572782 -0.064608814295011862683 -0.71454635808954214404 0.10092639896782489017 -0.80346246119865805113 0.94399539714734947982 -0.72171754915380958995 0.2268061567519095989 0.7073141739578340248 0.84605528026668330721 1.0185323974628091026;-0.94850798487247445223 -0.54431892842013351874 -0.82650565525160413216 0.65511000038196420814 -0.13559607287639832696 0.34524915950465162595 -0.80122811000868154885 0.57440573061154143186 0.32578690313884861585 -0.7319359943750278763 -1.0375312543731929349;1.2886208686276090507 1.2170136670303048909 -0.27929878589998319294 -0.24107121316993154747 0.027280970653878345439 0.097938253185138032797 -0.37438520730475316478 -0.33421515706573590165 -0.3321194983068492812 -0.46243568007876156845 -0.90847860871403851579;-0.91340518455293828737 -0.087981829990868704039 0.66619069365162253415 -0.76943950890708856516 -0.26237299014820758547 -0.47322730767740556201 -0.82286788329344062731 -0.51596555056597526168 -0.39325177032407782063 -0.77121097663760507235 -0.74680485429762044625;0.7281252856097738535 -0.87215952134964946918 0.77395161562294079172 -0.70697701809785806759 0.85049340924119698482 0.40143034349342993083 0.069614920887476172684 -1.1336868610882215869 -0.078566442329061764172 0.31182668880242003784 -0.11774295851260206669;0.68080473732623447702 0.85159282148669412926 -0.89300540299072517225 -0.70601726841990286587 0.29200263978404350507 -0.82081676307845041762 -0.32062873427229027223 0.57127480621962811735 -0.15000523734465315284 -0.66019405320116675284 -0.59999948879221043363;0.71890453005900412098 0.98617167094769631053 -0.22409235239170968712 -0.54405843103854234499 0.77346359596077784992 0.083243199881026463949 -0.6532198634433532547 -0.59025886144766104291 -0.18200554918897399181 -1.0700023605417301464 0.63866423887156020811;-0.97134535263603938304 -0.11719785634581127154 0.1310509487207476842 -0.31072888309977730881 1.1027492415676680704 0.51291993461147045164 -0.67306557317993120915 -0.22216952991764957193 0.10207923122902369528 0.60041900415875604224 -0.99744832845529929344;-0.18302478525403584331 -0.84588255569140513579 -0.25641080695444806725 0.12845371484088455305 1.1309668360672882059 0.4585068021419759221 0.90166738849003658096 0.089900614444957824278 0.72305269795240889596 -0.48818100098169964207 -1.0678648845003824164;-0.86059964153644508134 -0.86077700350175101462 0.35795868888047049916 -0.058057827920362604923 -0.88095250794591750676 1.0510996547648323585 0.38128512554238636056 -0.91663329444254382228 -0.15726642275303426288 0.38853646138348213457 0.0080983200417576901853;0.91454236278514178249 0.035964678610180003671 0.52476319450141417633 0.8064333890252830539 -0.87136912527379339899 1.3003805132791355081 0.13582645084147235148 0.61872374149804709731 -0.44134724363369526312 -0.047041630692705047045 0.91689973502347799084;-0.22064882067624386197 0.2535343782753627373 -0.62671426200848734389 0.038714946459420737646 0.57454418624469549837 0.75467652092417503162 1.1926928384515251835 -0.057992745312881462116 -1.0897555381068280145 0.35859677993929217621 -0.59096375143954726905;0.72981219236665717531 -0.4220496758086722533 -0.12103638086502582771 0.78846797674787016952 -0.7218758609748004984 0.1446795041024497297 -0.70354606868124780483 -0.61823816632350681033 -0.84505343093665741261 -0.84977523240318431075 -0.56997246755264385776;-0.66438714223031114514 0.26822192166291974891 -1.0337961967873106062 0.28229443559765121652 0.067637502006974645208 0.95855254254614463694 0.57289585976541090862 0.65236780566562535544 -0.46122115112481626431 0.89899980968085668742 -0.32823365161409862045;-0.50608186779338060202 0.46473539228318688776 1.0533555143308463986 0.9748503754925499365 0.073445221951072794941 0.18622446361792768799 0.5126192073643157654 -0.85129231079179334962 -0.39541921049213935024 0.64757191709663652901 -0.62090008083819703266;-1.0114589165114165059 -0.86869481098609957481 -0.91358894794867218092 -0.31572023208196564603 0.63910995038290507875 -1.2835012296971315404 -0.092181437589507059238 -0.69206624682526951542 0.56325151826612518402 0.36230288225573631378 -0.2467862551391821202;-0.89978333743526683897 -0.97591741326503167464 -0.86043007179987329724 0.22069245485664812367 -0.046239492524477121549 -1.2303467672375054676 -0.76750503391956959032 -0.69379434530048589291 1.0259571436950749579 0.37723669481141092197 0.21866279551796480307;1.0142920691587422599 -0.54687824481605662452 -0.34040118764325177914 -0.56842358304042550632 -0.29629595230905125813 0.99746687607062967107 0.27134546569390283199 0.089997992346164693012 1.1732842069716902245 -0.30419723287939948175 0.36698680371854769389;0.22247514108783505993 -0.50929938536792807025 -0.84742361532314991468 0.48723714800111112 0.4866864117488834407 -0.049371337470642505385 -0.5627538493589239188 -1.149152870190907727 -0.12577286799282932916 0.33577169400315132197 -1.1221237325733548484;0.16797940937189628774 -0.21999945481427216065 0.070086532382400562602 0.6533441944884659236 0.79375943396748693814 1.1653483522702003938 -1.1400298398107218123 -0.24576867014025965963 -0.98460782185089634755 0.38403608938659394845 -0.25778737869258122606;-0.70427650221435755817 0.16507139489828953627 -0.26343206396676327463 -1.0120615741130296605 0.0097072628992668046066 -0.59895629525408533578 -0.55272648991680373154 -0.74042573931694755096 0.52824779105257646528 0.10705519373668975769 -0.95035343914231595885;0.74792955572637742634 -0.8744822070385445123 0.9590419731850181595 -0.52269732707849347886 -0.32039188062221979347 0.10970231866103206941 0.83671980526172895498 -0.81775473200816717334 0.55036854676057800351 -0.47950142876248752488 -0.00011161488630869376062;0.29909946794171066164 -0.47841119192785808156 1.0541483882162774322 -0.70954040567658960281 -0.80907947939297597539 0.39576480590214391242 -0.97470401786235627561 0.71613167091541030107 0.5478415776253136027 -0.59281031968318298464 -0.12296923493891648294];

% Layer 2
b2 = 0.072936029136809965578;
LW2_1 = [0.47252276159823619617 0.82366775472385334034 0.095516008506086158558 0.58554395226482647274 -0.21645314671539361839 -0.42643714894780981872 1.2451970710002937537 0.45575627040543476021 0.45433855634150177583 0.57105883408520730082 -0.22303089806788375937 0.53036068600319674626 -0.32301335662292568474 0.39170721753932613574 0.042609289237122142946 0.28729216526098882989 0.35040576168238524168 0.51446109171116705117 0.40330841734922862063 0.38846142927785914933 0.055574228929339164473 0.34137761359753499013 0.38661768143612362802 0.082841102578523104216 -0.74891984719277482352 -0.45192290134059398543 0.66423732495387433072 0.44287654592659281283 -0.61920540923259526078 0.5571809174354581673 0.21048191902585747237 0.32923266092961717133 0.27760700376268993006 0.40867793846310046524 0.42607245451577241413 0.20809732770283348446 -0.38074290862808851665 0.51662307746461022528 0.36974131661564096918 -0.57180311712281139958 -0.3544733235953791417 0.61355382380039624746 0.28771961755289521268 0.067264695656550410607 -0.77796516195753229184 -0.6053390797547780755 -0.16234647534340262975 0.22523924887207530388 0.55504906894257488581 0.75411927781692389416 -0.0023445412115533775799 0.4194218338664430501 -0.74261556239154669079 0.7212721630994620714 -0.10016208571108342618 0.20483608194484453913 -0.42860443122421554296 0.31244044687501587587 -0.34739276274135066913 0.018351268595574437431 0.71706208603369481214 -0.14336049845640139178 0.57489536003495878003 0.48392116733501011616 -0.43817430503018850452 -0.28912695075886601925 -0.9034451662597828836 0.30924022527942690575 0.13339197378922684756 0.911427684796593085 -0.21544002491431787916 -0.07837444641628002473 0.014212177760081070449 0.066818168018481366444 -0.29973932562860672313 0.720691052263988996 0.37141819406604859033 -0.42516130504083793351 0.22448949419195191046 -0.46071407266134994929 -0.24372872419633034857 -0.25814867256147655539 -0.11525474257011195101 -0.45967185154103501477 0.097928768445583208591 -0.61405015191684242382 0.46163841488004109248 -0.44703256376760502899 0.3392208358261977752 -0.017440419507461127346 -0.47019251759242935984 -0.19827669512993456591 0.5679567626793715629 1.0838747280403451256 0.1302766786874012539 0.27084334905531876059 0.61017154733648970577 -0.55683352262054652826 -0.13124477170155163241 -0.52064419529844663259];

% ===== SIMULATION ========

% Format Input Arguments
isCellX = iscell(X);
if ~isCellX
    X = {X};
end

% Dimensions
TS = size(X,2); % timesteps
if ~isempty(X)
    Q = size(X{1},2); % samples/series
else
    Q = 0;
end

% Allocate Outputs
Y = cell(1,TS);

% Time loop
for ts=1:TS
    
    % Input 1
    Xp1 = mapminmax_apply(X{1,ts},x1_step1);
    
    % Layer 1
    a1 = tansig_apply(repmat(b1,1,Q) + IW1_1*Xp1);
    
    % Layer 2
    a2 = logsig_apply(repmat(b2,1,Q) + LW2_1*a1);
    
    % Output 1
    Y{1,ts} = a2;
end

% Final Delay States
Xf = cell(1,0);
Af = cell(2,0);

% Format Output Arguments
if ~isCellX
    Y = cell2mat(Y);
end
end

% ===== MODULE FUNCTIONS ========

% Map Minimum and Maximum Input Processing Function
function y = mapminmax_apply(x,settings)
y = bsxfun(@minus,x,settings.xoffset);
y = bsxfun(@times,y,settings.gain);
y = bsxfun(@plus,y,settings.ymin);
end

% Sigmoid Positive Transfer Function
function a = logsig_apply(n,~)
a = 1 ./ (1 + exp(-n));
end

% Sigmoid Symmetric Transfer Function
function a = tansig_apply(n,~)
a = 2 ./ (1 + exp(-2*n)) - 1;
end
