function [Y,Xf,Af] = vertexCuratorNetwork_V2(X,~,~)
%MYNEURALNETWORKFUNCTION neural network simulation function.
%
% Auto-generated by MATLAB, 11-Oct-2019 11:12:00.
%
% [Y] = myNeuralNetworkFunction(X,~,~) takes these arguments:
%
%   X = 1xTS cell, 1 inputs over TS timesteps
%   Each X{1,ts} = Qx12 matrix, input #1 at timestep ts.
%
% and returns:
%   Y = 1xTS cell of 1 outputs over TS timesteps.
%   Each Y{1,ts} = Qx1 matrix, output #1 at timestep ts.
%
% where Q is number of samples (or series) and TS is the number of timesteps.

%#ok<*RPMT0>

% ===== NEURAL NETWORK CONSTANTS =====

% Input 1
x1_step1.keep = [1 2 3 4 5 6 7 8 9 11 12];
x1_step2.xoffset = [-221.324841088019;-392.658838840633;-221.36122287118;-14.6524135110012;-13.6609950769715;-14.2093835727918;-22.7917490134108;-21.3972103595238;-17.3028396379114;1.44337496687445;-796.869755956576];
x1_step2.gain = [0.00487796942744267;0.00130916263337006;0.00469110623806943;0.0814816408682792;0.0884874896228471;0.0987415861304199;0.0410358121487853;0.0514398910404824;0.0541104670411813;0.0520842336562136;0.002509841409769];
x1_step2.ymin = -1;

% Layer 1
b1 = [2.2090477346707872996;2.1939873908235605349;2.021766894015695204;-2.1133865928851505167;-1.8951695403454622557;2.0648463823364058278;-2.1010209789318561313;1.9915641276453794895;1.9595259110688274529;1.9271808014285176647;1.7863730732893985387;-1.8629777874808326477;1.8539221579631837145;-2.7920134314051101576;-1.7912592702408471901;1.7613861639809826887;1.9242167242711325503;-1.6121185538967581774;-1.7527893291924954156;1.6892222446808349279;1.6371557822856113162;1.577292589890531449;-1.5105628210719039828;1.5276111806626000433;-1.7835225039845707951;1.5171151837688146014;-1.419374603675150226;1.3960137393304739017;1.3653237528960575631;1.3404457499107489404;-1.033692420063160089;-1.2314255717692854653;-1.2601973800595664965;1.174049822824918321;-1.2614898958708724575;-1.14955000267710572;1.2041280710919772812;1.1080584101373556205;1.0448593326571440354;1.0950462289779554492;-0.96330018973646047709;1.0201524684420173461;0.79576971115461969664;-0.90774279151174541713;-0.59464950562643681398;-0.76741184344815371876;0.83153755718173449907;-0.47491095530604660047;0.78173920244944739011;0.83924655914922707822;0.77711019515130974611;0.6706356553580009594;0.55450523574978882735;-0.44963655669853636043;-0.88355289923094360027;-0.7714380787949381979;-0.65589520323581251837;-0.52315198449974331663;0.52698943111315510457;0.56386359597408686195;-0.81987679217899966932;-0.16566372301647516729;0.40014627692759185962;-0.29077688352366931612;0.37393048047579435789;0.33219098521545209479;0.27818071029506391545;-0.14673283825218894072;-0.22292128291439394783;-0.1878191907191261445;0.084705440583143790101;0.062547899263970516137;-0.34477588706510547967;-0.058040752568028833314;0.15875541290142197726;-0.018356800928356769437;-0.29227209637787870955;0.020374915581509670665;-0.027583762941380436662;-0.13112052207810750981;-0.16839739926494165512;-0.22795559841195475737;-0.12616279495185384052;0.25033488465970021863;-0.36225536323938556382;-0.31387915147022044104;-0.24952815699066832611;0.27554845318487286576;-0.41862954143191261069;-0.42693427842947517803;0.4267060472443279795;-0.49269704165745076274;-0.55883641368277370276;0.65668601318742725326;0.96193941709132868567;0.57327825997278814008;0.0070744802071705317759;-0.5085375816639267077;0.84135260251949528509;1.4600179101976082929;-0.76647855586078550427;-0.58603821943071154887;0.85489786825902513989;-0.55828859957506571376;-0.88323355953944560071;0.95288706869797235033;0.73493399245703672218;-1.0822248965886496208;1.008054581740635447;-1.5427667394208675056;-0.31416415094180916157;1.0874423766724368168;1.0347238391189048645;-0.90928124905319052118;1.1476194643085850799;-1.8123961162534674152;-1.2475059339255252233;1.2683079625038904403;-1.2885506761356886329;1.3034413242590299209;-1.3759929365243881438;1.3778838401714352813;-1.3243970866423799837;-1.2496079673658662124;1.4256210301288110287;1.4330354447324653577;1.5220400587900431155;1.5657128480292801243;1.4634463854505979086;-1.6068441370791426426;1.533509630825676151;-1.666786759455284983;1.7378437250723546281;-1.7466546141692507188;-1.8289033641794176788;1.7476813561229829208;1.7545777717280077734;-1.8324442019781013169;-1.796190406341720891;1.8606155124492775865;1.8023077678660077705;1.9693216270793096889;1.9851815287763316942;-2.0305485738613602287;-2.0607356817063675614;2.7964793699852363851;-2.1377118620062924848;-2.1516919667259259974;2.2475034895511285526;2.2051759566139526036];
IW1_1 = [-0.59140516721882852025 -0.65494217965432710571 -1.2562851659343132749 0.59775148186581683607 -0.7567417435958145866 -0.2772794587112444864 0.24368685236050349752 0.77540490126175776187 0.65373177879052501993 -0.62917298757856054969 0.1752207828230142872;-0.64056971859558542448 -0.4310944264973457507 0.46883359901887627919 0.59968444095677864158 -0.68047593692726493497 1.0958503428364423371 0.10799457527289153813 -1.1916882765778937792 0.643875511243201748 0.40048794701426837506 0.059628175402437595676;-0.4606173309205650046 1.3601276445789367564 0.91113747664830380124 -0.2090559463548336272 0.019015644306915244904 -1.1814221590753539726 -0.49419274620187247926 0.25174513762424438612 -0.53025495981786219257 0.42014556314487827571 0.38463528345856573543;0.65848692000641073641 0.90413964792447720775 0.8931176266356112281 -0.56741010971360894555 -0.11161344677930822022 0.93163323528879216084 1.0570409561213238714 -0.089890794349879579728 0.18997961671306570763 -0.50640840705841039249 0.46829720962527382477;0.97051593832873428447 -0.41525210193523126589 0.74496267649748548756 0.25090968126741208799 -0.69933550112074194249 -0.28552094156715662754 0.48041813047190540242 -0.97679569542643995828 -0.97905184806497258521 0.1676507622232343564 1.0267915895674195603;-0.55386083114431616803 -0.67055176382158587778 -0.52287364249526002702 -0.31252529923696659164 0.21140498432486493074 -0.12457177209804541629 -0.93162761559428164393 -0.64912616758548391527 -0.41330161559621586553 1.0448943040462195242 1.0570190064519022766;0.27375881065885077081 0.16868850520524159009 -0.21024610546930708188 0.16192298075999864149 1.2164648715714947436 0.94651063792871881208 0.45097771255900137577 1.1381170642834712581 -0.70950923946792188168 -0.16655807912534403847 -0.42125926842361977043;-0.75933134073187724677 -0.57243210507421249389 0.84857645470351183992 0.82770873097383457218 -0.15088829391956903869 0.37385939394343969955 -0.10943833205132641462 0.60598535617084459126 -0.74448913023480367546 0.87164802333874646934 0.84343429516399581747;-0.37463201806641188707 0.49767276563824469626 0.96773052494356393005 0.28261268852729992673 0.83700122260638487592 -1.0737820103560844487 0.71034813456550216504 0.80371269932051914164 -0.46487308869868826378 -0.48316274989245400207 -0.24295889424257091638;-0.91272387567477086812 -0.7530982866603044279 -0.11182714108968043465 -0.59665190072025597878 0.28128688449334549038 -0.30285207495859139959 -0.93686167482603943668 -0.2378015403046900289 1.0297964679556079748 -0.97333486925950962743 -0.22195028880542441718;-1.0771696374413801678 0.93721765607377616192 0.096529550691218962699 0.90055818911700935558 0.64404543715812190285 1.0885742600193812901 -0.81236882822302658447 -0.1296079424703027172 1.0327915353711887292 0.44211828686070930861 -0.15737038730138258602;0.1061093218366637031 -0.20443064459064605454 -0.43352417423230754645 -0.80841338397318485143 0.4981871254751149003 0.72087108852271752912 -0.89604863525477129738 -0.0078944204258661471174 -1.1684080347859095994 0.72410984801120270582 0.80103808513401353331;-0.43921801456227949068 -0.28234664503367606914 0.94791004540267886913 -0.1128959651899153066 1.0188449969721684596 -0.1955218373790744979 -0.56805018038552723691 0.77227857929531618097 0.97974244217687123104 -0.84640351437652383559 0.18444070428284098373;0.80606546620521923874 -0.19092527962993599555 -0.12999184945737468633 1.5384955568684319793 0.95233519910487662852 1.6069619492993540977 -0.092377902626706129285 -0.69650724262305285794 -0.49750164268840790793 -0.46716596853648489907 0.70876652800486050765;0.55207823352650986504 1.0503297079462468044 -0.50217258745867232594 0.90639631808206833075 0.26940667319269717694 0.43685796351955463734 0.16465445899281444531 0.83579929205242187162 -0.12437492606829009256 0.97437281681318643756 -0.6663113799693988204;-0.96016736699228644181 0.71084630189360675789 -0.066519008011588942608 0.0020763128592241140297 1.0383694953933746419 0.54313823633621416409 -0.32439293813790054388 -0.39937218496074211593 -0.25451167802088303649 -0.98794900053295764408 0.87023645732329235614;-0.094437191246003623912 0.69069927383070139904 -0.5120759374526230312 0.43670301852373677454 -0.68774714390434998901 -0.18458161337938422397 -1.0460008663157769337 -0.79684077029514333024 0.6293832490732896856 1.1104315381044496114 -0.69245594193438098074;0.49024745931908730867 -0.91524249207824182051 0.48458699456605552891 0.75443669093433995965 -0.55949523636844855634 -0.93551551864941362435 -0.096400274271817937288 -0.94269927178934853629 0.63860093463033007488 0.0046735939359520504294 0.97426111739384413379;0.11463897853376531222 0.095539929298839657013 -0.52230883000305472486 -1.0679779584326567488 -0.89644196899934380784 -0.70096147885525106336 -0.48818896089102464808 -0.82621983695850076401 0.97334068288734165719 0.1497405960783241563 0.40738896243264699493;-0.37531218599629356802 0.27696449050232396782 -0.98561527630401279954 1.0273588288317678785 -0.60591448884384024876 0.14252254208311695982 1.0247586567592057438 0.69580327243727557729 0.54055353770034508809 0.19569698050300732284 -0.74529065081814083182;-0.28091097199244241533 -0.92998222647470518698 -0.89937425018461547577 -0.17408416155112163559 -0.65784976025513264286 -0.54251839745959162808 0.97998985522526260716 0.18525781850687275676 1.1015773143477274321 0.74442734288522116604 -1.1428942027248545354;-0.57193002057261832505 -1.262596649986857944 -0.12085956629814388619 -0.019291286514109537431 -0.11871637662207569497 -0.4583369604502220418 -0.85084132072186613449 0.41285874825386681408 0.41878301785614979735 -1.2796068801981801411 0.18963773592131172308;0.44111304075467910879 0.97927156228323775089 0.72688357373159284691 -0.12749465238634632991 0.61702441045623535043 0.90350289997337640546 0.12487151786143228793 0.70790353602063083027 -0.66159035497488394295 -0.55706650004727453762 -0.85268627439613253749;-0.45406643276421593258 0.20794809354191243211 -0.45094271771713434482 0.050482353697892751176 -0.072907781150455708286 -0.10942740699886326083 1.3014215338698633673 0.9581592286695466143 0.062995053776537898726 -0.89606962511681964578 0.99317060805807744206;0.89906886348737546921 -0.57220499782434408598 -0.53290953118965667112 0.65052599233260532952 -0.13833180354775445609 0.48300317381393509386 -1.2325097565783240672 -0.69113825418519814203 0.25264860242264819412 -1.4873267105730445525 -0.11145519494167947794;-0.84069150383947188754 -0.95189274257006462054 -0.13158641824578717894 -0.58218072498486339583 0.95794885770280691073 0.685814383344569789 -0.80602646545266332101 0.62945715294557169628 0.18648159789842627676 0.44686334425856300001 0.48222591500312705914;1.0140321537300003296 0.33086206934266187973 0.16161238660875501538 0.85052167561299230059 0.77165443349075935053 -0.12954237504748261633 -0.5181902433765668281 0.48549582742627961363 0.86741027263039272022 0.85198313835925754134 -0.63081989433878593587;-0.70637777718948491223 -0.20786034780186191107 0.99244859948539854155 -0.48139866600479919168 0.17533699731567017888 1.0678491369965077418 0.78433016077787565123 -0.10987824925307691781 1.0913885703858816623 -0.011805995536881290844 -0.38330745530074578076;-0.18935779966654633921 -1.083514409606721518 -0.39849737282230307533 0.71615332356794547675 0.78521265670452078389 -0.59499568172622452344 -1.1109594461855298864 0.066120135480610298107 0.51766756125965518454 -0.59881598347049269648 0.32815134130421108605;-0.076848118884144139829 0.79932589250582719576 0.72023792118876206469 -1.0833116739503492187 -0.34700062433475309387 0.77589049880658200742 0.42398934741077615174 0.0028178841926371107907 -0.80495207178776373436 0.70701191161852228184 0.69124549055557160671;0.69186312056097420964 -0.54578361551683551856 0.72038206350575129111 -0.13822673796735202023 -0.30668053472916473323 -1.6540857980594010357 -0.2051312194864784999 0.21220609470096057914 -0.27632195396088321537 -0.066227035929116398472 1.4325099895191155674;0.95014588651110154505 -0.34462115927709052743 0.32518900276576306885 -0.068733210937977282096 -0.34337789774307847512 -1.0331706834813245699 0.54274177767248621418 -0.078638577196338543818 0.88720180893795153043 0.93163414953448075995 0.71706254728582052849;0.89971624915283632262 0.58148001118391812181 -0.99036523297484813089 -0.50437073871334103803 0.88413525639335666106 -0.8419383251508366639 -0.10799347892157701301 0.49733682504274412395 0.52965881059644526196 0.70030352365199977083 -0.083823497801774657368;-0.22315290366974047109 -0.88760469577535516805 -0.054274049094034326757 1.0940548649457200181 0.97423710366765003954 0.96222596883569089243 0.66936992958835817014 -0.07902249532418954836 0.45336734392375505065 0.68170687618423153609 -0.62882646644430839622;0.34658515386066196529 0.026580343872923590381 -0.41251559932760384353 0.64831919032154394777 0.86146161638706109098 0.99499631070283889311 0.78285308910570883256 -0.96218868612608987601 -0.61702799438685407285 0.69272883245870098268 -0.089078214744795519708;0.74985773849774406408 -0.83459565183869921512 -0.86430258141302751529 -0.56025330052077182419 -0.69794621178770588354 0.63181717553853655733 0.74909070233322028187 -0.00016167317120373845066 -0.92023423099381873591 0.0928695973231230959 0.49708608178893942675;-0.79453711223992684598 -1.1517154450134685639 0.41249047247107611947 0.38206144167008765367 -0.28661135298046841458 0.61997830988929691909 0.6622323548419950523 0.48477762362255855111 -0.82606840863484543025 0.3067563592347172241 -0.68134172582401297813;-0.15558984329486155729 -0.47456297366299893259 0.21080155135166120384 0.69561580622727381407 -0.25102415622148915864 0.17155229076552427903 1.2055716379090655188 0.56555885317415732771 0.365751997771774362 -1.2454990455736110189 0.74615937074327531864;-0.61578001963073580871 -0.47752262385625482422 -0.63180160813129648822 0.35113019953343782564 0.95701012368431881416 -0.24372328218080993589 -0.52567984825199709498 -0.82449381062796345265 -0.842271284307734458 0.75862467527307431148 0.81620577348970246856;-1.0548388662080676603 0.91378027060091648881 -0.80694244942961901312 -0.88800601646978827297 0.21191331714709202294 0.82133603722229453492 0.19693660448045416378 -0.32352808546178951632 0.59662825624426008009 -0.3465180606045257794 -0.15837886688807142899;1.0601543991038631098 0.65018323879292660994 -0.7524832868350973536 0.23388236182060195834 0.3811504296170963868 0.19922190476781415081 0.43037780906228645383 -0.9458565497040172243 0.96236006186332223589 -0.93294909531457859142 0.4636900438157899873;-0.23843029637705573376 -0.59433483318956503716 0.14833352626227788718 -0.84865827333955479173 0.52462849572304470769 0.70541663937525522776 0.52791143859857092568 -0.50432923825109432503 -0.7756399095155795953 0.96933774714609888257 0.90387998569424221618;-0.49715253320550378824 -0.44702919439827831782 0.58151790968353689326 -0.48068889282666299456 -0.1587874409293117961 -0.97498145331576313577 -1.2099647745341470806 1.0101886158447550557 0.98181549821611124873 0.79613501375793316317 -0.39084259101232809996;0.95568206488567641887 0.40407959618579331051 -0.24510301022843494767 -1.0018838717439568775 0.62518830641598066578 -0.68844762862369490719 -0.78564869316986540859 0.29134850327266120784 -0.6125446795130360389 0.80157082785113242807 0.37213231748360342532;0.836150213452696911 -1.3385415921062990829 0.053468412895374343996 -1.009364376247327888 -0.615235733917112948 0.105673205770815265 -0.62651610718938621769 0.39106206883583716216 -0.23172466407835248803 0.8150339138892130908 0.64991600724818998636;0.6848485894270188723 -1.1222219948355891539 0.49479666248728121358 -0.17473731417099203078 -0.49650498303840401304 -1.0342048893501398776 0.19156219189520903856 -0.73289039078824469442 0.32637406921680411909 0.75779872507914436408 0.44203455219521181618;-0.92101206032116478273 0.21369145378284648551 -0.25239155103089921939 -0.08783694628080926381 0.20290249268599114263 -0.41763948238669101887 0.61931873533070402882 0.84758444684789757684 -1.193514184845463566 -0.94147573940325901543 0.48708449871069764425;0.47612547670913907272 -0.98210460014390288386 1.104077020931555575 -1.162401057370037627 -1.0136089777700736381 -0.45990634166124810811 0.5483632551858717008 0.73168155876500273749 0.77464887900161849554 -0.043433409155970131854 -0.35328602682293835935;-0.98583998396702965383 0.55210939828777227945 0.13380329205312455065 0.9019990836521237787 -0.99984417097089273163 0.44318752104330000341 0.37495012443017355919 0.63670913632259762416 0.016881131262937391219 1.1492495227537296021 -0.0092777380212127995296;-0.34333560090568349121 -0.86535353968962736015 0.24804105909076867853 0.37299787467610867608 -0.81140469369760126472 -0.56911426923360908248 -0.67841927942444602007 0.89787404280164395676 -0.76023330546689726894 -0.47747998517368428484 -0.80536169093858089862;-0.59779416756731262872 -1.0111587800709120888 0.14648085894042989219 0.42017351107628453377 0.79769978398601504299 0.82572279810608462114 0.7445653593576724294 -0.57745522855362763082 -0.14593959761827235422 0.87011735189040162464 0.47254967602696229534;-0.92781393051982985476 -0.22504701948821503876 -0.82874847354872105409 0.57517443444965266064 -0.57365332297491689051 0.24120938191776294945 1.0682667762952506862 -0.013229546750976173622 1.0777617918467294889 0.82432796897255289359 -0.36386925267946346185;-0.78932823124262940784 0.88056518877944311985 -0.79944431645786584451 -0.31410357717863096605 0.86957556056495488583 0.11981919561032979005 0.81701887995992295011 0.64449867491897661065 0.36865111381639925625 -0.69100408894262543846 0.46267879331970562795;0.93270081736081600354 0.73527814801509128184 0.92231015151974826694 -0.56984569106150007034 0.71988824057291589398 1.1442054801008039178 0.070772837529366805498 -0.30177573747820007899 0.49677241803320587588 -0.5706131529884899134 -0.25082772147942861141;0.77427451711262929024 -0.89722396397190717909 -0.61924721653962044865 0.98224673310339438714 -0.2526580165867568506 0.4676254356056289696 0.81162898563549312758 0.9205992706814998261 -0.43059714211968658226 0.082168132881373756593 0.50570169715877666405;0.92909234213499380939 -0.17598144112363164893 -0.039833717958426224925 -1.0077189962209676111 -0.81980956677260019561 -0.3417699663455378567 -1.0589500928161488247 0.94239449546547271463 0.52286563734744473386 0.049703357905694141305 -0.03489940338181554691;0.34214198871715056915 -0.63412913401011494763 -0.088619370121830090548 0.90091386051500044196 0.109512941756892343 -0.86826752256857175905 -0.3980813637275315009 0.40636907903624236438 -0.89537207735239665585 -0.80842915878143495334 0.81152659606729093955;0.039288710338009763534 0.96513005605163870726 -0.85197590286856084152 0.87107469349410115989 -0.75617490547223653596 0.5573020183297012764 0.27576636210277793992 0.8336835494859237139 -0.51241583734339501977 0.21109104374488663058 -0.66729810976564074565;-0.47257775689198150415 0.84209389892723351956 0.49738089827945564103 0.57791407331753075205 0.69554733638190946454 -0.36623895833465841543 0.90669568724664528769 0.22542761309836745198 -0.46733891049683701224 0.77075321854535172594 -0.95783894549646042549;-0.28171077427511093116 -0.83115726348687102298 -0.86982887001332520605 -0.45695642204852232604 -0.80609437495792168882 -0.52272427314176084234 0.82541365711469216748 0.59010413809234341098 0.94978964280614197602 -0.14446291407271663609 0.51773318568638071469;0.81757448113829345182 -0.40897748168193837071 0.82751513933613229934 1.5322242104373127169 0.5412496549333253304 0.47354321441496755041 -0.49970208398858873 -0.6806837412406169241 -0.75394839486019149533 -0.3874117288156746497 -0.42845310396824726196;0.52461635015544971772 -0.24318384825025723961 0.80324397674257896895 -0.20850188171756295352 -1.2086371914511684356 -0.007607852360671609783 0.68654460920246329625 1.3450089229967689963 -0.049604185666730873927 0.01325070992105123989 -0.63422443157875973974;-0.81284353369543849155 0.2870136309520456841 1.0653733283514268404 0.99210179403714271462 -0.18967185610585449163 -0.1712321516485947881 0.73878413223190830816 0.93007302716018125377 -0.13974218032289686953 -0.67452275618237966803 -0.084445731964722742235;0.28732499154480867221 -0.13514613496016714134 -0.20667483476940548548 -0.46100555804342818744 -0.70262963710908121762 -0.43264669299436864236 0.97856994114421236297 -1.0415806465182808616 -0.73068576929624007299 0.48902659636768669449 -0.9588787524833518594;-0.16114911283077232307 -0.49873418140439412793 -0.12060834465069282528 1.2502505150191283168 -0.64818544636068575748 0.12809657471665700235 1.3609129871912555299 0.34936295456738025722 -0.12636967981837129993 0.27623632405465520234 -1.0986026628913287961;-0.012460044451427194218 -1.0278443306470395058 0.48780404745971889247 0.6740621846019717589 1.0619187634272748699 0.042358301803986989076 -0.43116479002319013647 0.20633112417513632675 -0.69874585735362937378 -1.078356552122122558 -0.48904283361695100041;0.91620843245403149613 -0.14464484000897570581 1.13168929392861628 -0.55458620137537073536 -0.48571000316848028655 -0.78113601046615743773 -0.59202846486195082054 0.54705057891149244664 -0.8512443128235324119 0.71200088583619602911 0.89138053579473830457;0.47823671944350609753 -1.2210346273133152462 -0.57498160704526590781 0.13340308083540319828 -0.59626453229288067792 -0.020807286420375957492 0.061708202963693663257 1.0908691368648355535 -0.64987759131459010842 -0.19037955621786226135 0.98698939804369523188;0.55297331857393716703 -0.84412192909685124231 0.35745909089155158966 0.34287643722317728834 -1.0126740782748064884 0.40341132337868484958 0.78786441810138729824 -0.63647088997759737605 0.48053672146170189894 0.15218783814815650679 -1.0502476114137178076;0.3688935694079502059 0.14916154503872181003 -0.97417190493110927818 -0.17826127482770570687 0.53895861614817841545 -1.1430933260561697562 -0.11558515554242407286 -1.1690570073635273562 -0.67954013393346712757 -0.55650599150269886017 -0.42215597476060773285;-0.79220233827749719779 -0.32961739843778359305 -0.48869408038839479147 0.5680436599666676134 0.85009300578948987503 0.77847155654925459523 0.8994232161584638785 0.17591007536759195595 0.40709556502472638018 -0.51816813902956204707 0.90695484043941165808;-0.54460954032446362572 0.43402578186986751074 -0.38674891437650099624 -1.0829838295203058074 -0.73175711959317979449 0.27052529831163257823 -0.8740833941484895675 -1.0340881883779036166 -0.46901450894272417314 -0.44529199723623003049 -0.89318231757101851365;-0.84538648811692029827 0.17523469644496125763 -1.139062925166035356 0.8798514975193079124 0.24405132678656080158 0.6395299010328304723 0.62409804498277055007 0.75503591654754187434 1.3888596053788480056 -0.38230532910843284533 -0.035540876625948750189;-0.29844995707464921919 1.005936009138449716 0.94464511810798135194 -0.86337785574055347926 0.58914336268423084242 0.1645318832029619982 0.78454662210643788534 0.81253086410667674233 0.15229902886041729593 0.68055716581475389493 -0.24737956368005575847;0.6781441656694245923 0.067986387425319205757 -0.088915513326613890288 1.1832297258081390101 -0.74294323389717109585 1.5855510924374867088 -1.252151897373087186 0.94545866018346869097 0.75939780325032457675 -0.39804126264018324655 -0.14744727366772186761;-0.96424271728643740076 0.75969508520702655474 -0.95799052887171909365 0.13902780948020745933 0.77451860648288872735 -0.12318145998660276486 -0.70249097713183172864 -0.092053576739938455797 -0.13580158000661218809 0.94988231106349796384 -0.6956850379540789886;-0.44326782133737624436 0.77683441474769154844 0.31611540067258209197 1.0658469614569778816 0.017490108860287026382 0.28346205487961534386 -0.3086796338328261502 -1.3136403858044090054 0.57255568767372655437 -0.38873379999426022069 0.57628779223322090797;0.63680962419615327885 -0.89530088941377417022 0.86185768611499002922 -0.0009352343291423555801 0.32377806297015948589 0.3364820772523002268 -0.58672488573929537647 0.45032809984213995058 1.065671662778822526 -0.88946831867532838434 -0.39704543230034422541;1.0635967629923379629 0.32112574948208472136 0.37472577643550653015 0.57374092869998172262 -0.01396860829761986493 -0.99759673252829084156 -0.71632057276965632742 0.54860870759177493561 -0.8054955573617580411 -0.90221574316874131316 -0.043890524738781092062;-0.10646681589360826314 0.72471209466012398437 -0.64401710400293599168 0.90850555023965384738 -0.56620132565141523262 -0.56335000714844507552 0.60225260952811943138 0.99048603471595275671 0.83243145110182747981 -0.11087011679925537488 1.0216652717181793353;-0.5139002284338364257 0.7657356024433696895 0.49713361293927027518 -0.48230631907457899299 -0.90004015892011490774 0.23301708454204525522 -0.68947401108492190058 -0.83563408685575668589 0.36076754255011833639 0.84636179346040552041 -0.89414820526564431358;-0.026511616574681921843 -0.99960541723634011024 0.83530619562373642495 0.30014400365541654692 0.35609290452909181379 1.1380720049382631043 0.66359928986736194112 0.2518555676826251255 -0.79515702948618238732 0.54666112574696890114 0.41375121165309414195;-0.26967248921404246564 -0.67687577470979687355 -0.18564589270509448959 -0.22347771013468184509 0.56697765074127226548 -0.52493612437274661531 -0.3061093685419012389 1.1190419446400698966 1.0093183287823446204 0.86314875428656712142 -0.60062699712342726421;1.0308289280742730654 -0.36136745428653510581 -0.11582672141536842769 0.014539195687251585051 -0.55272213545593129602 1.1385251827189715179 0.11557285463100719358 -0.19422200207005274608 -0.0255894293120108203 -0.88785228331701704363 1.1253861772178719303;-0.90942746710852839787 -0.8343525779520531982 -0.35009225930947951433 0.85721135356058997257 -0.64824774560427889103 -0.076353453170604698719 0.45141539755628939945 -1.0549691092927531155 0.45396064979767519754 0.70292167457197451963 0.46152732672251634005;-0.27353202531789699847 0.72879829525580364091 -0.8081916477995376713 0.71321352461597053995 -0.18334652898022935075 -0.29745732999092544535 -0.81655382023815414883 0.6239279621664353126 0.15469555029261206069 1.186442557946070897 0.70157619853632402496;-0.85711838535020734575 0.31216810891674368067 0.65601593026707560874 -0.73392303201517006261 -0.25951257635426255854 -0.69341600078155740672 -0.43381774593574745635 -0.6956415939327834641 -0.85096893231840042837 0.3717336863943499492 -0.84318204233966276284;0.11600396776947979882 -1.3089483684132692254 -1.000442644409305526 0.39744126948512453756 0.62792484626942812742 0.022702476059679562587 1.0548062912757247833 0.55697820275665388401 0.05905973107412496037 0.018243641577931551251 0.3021449343717719227;-0.20463581452811460681 0.41351561676393533418 -0.7330285557433616761 0.3572725794838602642 0.77195684324671753895 -1.0292480187950898696 -0.89022440411483749756 -0.020281532944109240124 1.079484794048596763 0.53943044920724858571 0.29315947728695218588;-0.97284784443477501092 0.54327215680686757882 -0.88257623788896166772 0.11985890476958299677 0.53440386585712196243 -1.1166485210855008336 -0.56843763079743425681 -0.43228541861013614067 0.34745681527681138157 0.7165026341345241967 0.37964604979599514412;0.92989992997576864653 0.28560757256977920004 -0.83183158575658844303 -0.43806450679260638958 0.079688314879732449758 -0.28184194942970663966 -1.0532710388363453191 0.37585692260721914604 0.26534293493101379635 -0.5520259384025846261 1.1298059911891671359;-0.41259364309341817201 1.0280915435624224941 -0.72927799060010767285 0.98856341822583437828 0.34305231624053411643 -0.018961913468688761791 0.93436037105346514409 0.16861306544099766147 0.62555951701862499981 0.13184604895557364146 -0.8451910857298969848;0.63973209514905238215 1.5475452143100967284 0.70098374198136270685 1.6451608287986754231 1.4056773920836680425 1.1305371196546214474 -0.11884287487042581588 0.15842600875060916521 0.26431690427136073085 -0.25111133034155935784 -1.032602221308454471;0.58867635282335251112 0.560402435557033618 0.28015704782162187403 0.85393600367337885171 -0.36809841629163997379 -0.6367038790857768582 -0.9288747707640878648 1.0419435376979111485 -0.89028084030050569364 0.23439787766606440256 0.26539047773973495348;0.72238491768248347391 0.56384810969485188448 -0.4114826348067653905 -1.0664676441084623981 -1.0953042542079458599 -0.1179966779020037021 -1.16447376006264669 -0.4408348427892150867 -0.31142622964575844557 0.82779706399775287995 -0.35650808213236384603;0.6489102532486140662 0.97434264967369421662 -0.34953732097376449817 -0.86235280284188431388 0.94738557627247865778 0.21670748155938449053 -0.99183837986561151912 -0.62490451315814921074 0.68366973496142080524 -0.76364905157773832478 -0.25783305193609418193;0.49129391633774699422 1.3324996066525405247 0.080300066296043595693 1.2385867740019822492 0.095502673527870257653 0.70954192155021222899 0.0021558596349755330783 0.24477694800680019349 0.59521111958138617215 -0.87208479922027448694 -1.2881748713758327529;-0.90277152140586802709 -0.32278967224344407017 0.59507730758180787944 0.52665035229453083243 -1.1894881148178733099 -1.428860078860171523 0.29913810461542844621 -0.16734122650328864257 -0.96576031441675636025 -0.65205016465193543773 -0.21907588274500050529;0.88298663706233682102 0.88375434754606485566 -0.37289558908717357344 0.6713176656732616765 0.87329485456102673435 1.0760705905520921988 -0.78076744675504483606 0.83801886067452691087 -0.77106279798693910799 0.15665052883060701094 -0.042720480389611785454;0.18923960536559431 -0.90247926287653712496 1.4061130592376256399 -1.1945605290840002333 -0.70453900527460833203 -1.7407178405713352731 -0.58267946744210319387 0.26388603492787010563 -0.75421864918122916155 0.52854013084111484133 -0.26404177865083960919;-0.48020259532248471546 -0.40195461895681128262 0.13066816185837870634 0.77718653950908622718 0.58852256099279098844 0.80099183035725995961 0.59316193710249931481 -0.81449481998564643437 -0.70423985754007301097 0.86867971316143743898 -0.76678439149013810638;-1.0206399611456031806 0.2104388913718254206 -0.97021231826714804392 -1.1174344769286572721 -0.57116358990172211296 -0.2826372391393774941 0.32514643838909546014 -0.42130580290262348298 -1.2708390195645489218 -0.30564073060520802194 -0.33146419459489306902;0.66914843596216799781 0.74274571332529748524 0.0011414780230534216088 -0.47650624721459750033 -0.67764143243095886771 -0.52230522755259300993 -0.27813578974621322448 -0.40379003015543230015 0.86695849009077274872 1.2210796829663503882 0.99961988979605431727;-0.45018193495643427093 0.20422163126804571132 -0.68803688228641202151 0.38335957180378837927 -1.1535800930403357079 -1.06244946409172214 -1.0761615825890802345 0.45313572446192595944 0.65976840004554804242 -0.014498080852732958893 0.27675473608233730483;-1.0764129870656120591 0.083426881472147731977 1.0009418645041416873 0.1225752111048877685 -0.40377663709156680349 -0.86564934427240802783 -0.63089376847481226651 -0.38156297373613617951 0.59266681160478695833 0.55420068441581815666 -0.78507693414402690557;0.81939922811200660568 0.60270040135457503272 -0.22992846079453027608 -0.48248706518801415255 0.89456125315445378376 -0.49139668369633338063 0.40642306351900980843 0.66976628896868872776 1.0908087864579438797 -0.20341565057613791856 -0.68252651382739992769;0.49460830285667117812 0.63748478187475510204 0.62763559100566479465 0.63360908731972265251 0.75419155712162411209 0.75028151250180374898 -0.8983361751384357774 0.74387549875107350505 -0.77634779001877451954 0.41319420177211019229 0.46006392409428886747;-0.68248837933541117717 -0.64274305018170585502 -1.1360361026965297704 1.2641885100653622587 0.4284983708368927946 0.52639124867849185208 -0.084557060133055306217 -0.53285889332872526936 -0.80037083276844700475 -0.75356652028169668345 -0.56479866156915981001;0.80160046231976644915 -0.38596899590370414845 -0.61247888573983289007 0.36162591886126477236 0.87992151784248429092 -0.18527941530627711764 -0.90465767966027677005 0.93201285227270902478 -0.9329062681896799214 -0.067368402722813122696 0.46800899868356121702;-0.76014499172208294109 1.1966434492068387385 -0.86095061276613082946 0.11618009510048707411 0.21178482044409877028 0.37552767595046115945 -0.1891129505878246797 0.92276508369784449037 -0.054443913393965114034 -0.95501894097535899864 0.54193025480409817707;0.12126008892098077974 0.19068181369258832558 -1.1713802824691637028 0.24207842955840480625 0.73368844412639322439 1.7749960870763239473 0.80202181143971340571 0.94726769704787672222 -0.44277476201210685947 -0.57707462866242653643 0.83679737077695515168;0.70798577044921551238 -1.0671251325084403216 -0.89762423690286941014 -0.65538760993205813499 0.67670909546361590614 -0.21357717450282798222 0.81458705440866807646 -0.57768448691606222312 -0.50689852002417445931 -0.096724578942639666268 -0.3994925688169092548;0.87249046874351776637 -0.070837716888158708262 -0.35265094078823960855 0.81215301931740624397 -0.44532260780933791144 -1.3419530396221728274 -1.1530726327698599398 -0.25291944477057087814 -0.0092201750969493692645 0.34820498498980628765 -0.903469025422347638;-1.0057616217254954361 0.17793796450266083364 -0.32720345836902992032 -0.82126188134719035894 -1.0092182351718534949 -0.39996724165593017242 -0.46523755046357090359 0.94107147282717873438 0.41209834770451930774 0.2310281699821041812 0.99811066493999056615;0.17568724891613279881 -1.0803539376598008115 0.7556937191605375137 -0.80807730927701437729 0.19416759499283575696 -0.96256749253673545841 0.8553369237560788374 0.22574982489281947284 -0.29744458380790383956 -0.55159033190846484818 -0.55513205864885906138;-0.91094897073417235855 -0.71671495804572604715 -1.0943082250043407733 -0.14045637084032583375 0.61378381420234640053 0.10004988947078438666 -0.0009347020653946900258 0.23251001444447050304 0.03011973112721250817 -0.59566065584493443907 0.55714772243471610835;-0.86000037069435308901 -0.89673341744375500983 0.63009063410435039998 0.61360968932485371319 0.57609678512079531831 0.076645876073159702191 -0.69602392825034997692 0.38195882402293945823 -0.8567495122256741924 0.80432758791004099752 -0.46234290539877614945;0.746512475524932273 0.74835896552611380628 0.10521995386087329427 -0.91935267424665201297 0.067898808776560334866 0.56641451360780781243 -0.28176052353093955505 -0.75216897585550945848 -0.44038768996845534254 -0.9538328659016185318 -0.89769025079738773432;-0.72733076387114192762 -0.90517145888663019804 0.96710757908401601135 -0.38939614510424519489 0.67466747449895747568 0.2929841763892909734 -1.0302629940947367615 -0.38057746773595058087 0.66389156102192492526 0.28907461758200658775 -0.40843047450972924661;0.64518569938896741522 0.29847263337540114181 -0.82959224283128407684 -0.82579503273296361865 -0.78242406057828883803 -1.1612009762062547313 0.42574432993407901327 0.31569181689347047826 -0.28041886197727006191 -0.79291453683617207915 0.26611708181511911642;-0.13660525929777989074 -0.42244286801564284728 -0.039452282773025489082 0.41595563101890675739 -0.16375273713781654528 0.013470571043015737434 -0.49169082259687446612 -0.50235948330390345351 0.86203372194971183973 1.2796004498190098886 1.2522237166540604036;0.64777178550125358303 0.10221005991832715631 -0.17023077930339880481 -0.58401430983156765731 -0.47530823426206170179 0.96757014161729015811 0.77801666373418865152 -0.9644658457470667301 -0.64491414426780779845 -0.97988037600341659772 0.089644400629585022089;-1.0348172422023158568 -0.48735039917432371182 0.32267378836836196898 -0.090614095061437680001 0.53190079062788542252 -0.72480876371289526539 0.69085750478027974086 0.85777355296033708232 -0.60274994218642519161 -0.95336187165116825781 -0.63033410434070602513;-0.37452954699752227796 -1.0225482932562357519 -0.05558152809884769896 -0.01898085475341568587 0.65871819849652379908 1.1287278622829153285 -1.2184220235038660807 0.22792290750299479263 -0.90013095637877571509 0.27896714778499392962 1.2624284643686645158;0.75971758803380695646 -0.80846519911819691995 0.80976507412728648827 -0.07095050080364211087 0.65252554917431726533 0.54336088178560804085 1.0348664504664888408 0.083382258106339243731 -0.88087653849935876327 0.38988047595133579204 -0.63806359850528382438;0.36389601391094650307 -0.52049694539111734937 0.58894338023752068612 0.7175397153273259665 -0.12801133823798918621 -0.38915992222989687077 -1.0632372185134861819 1.1180147653899445981 0.94389074872563183405 0.71701676201990482973 -0.052428649265152775516;0.6187250995422964861 -0.54042109082841316425 0.44055400623841495245 0.81154651204821659505 0.13909277256359114938 -0.14235444191969845451 -0.52452470296633024738 -0.068616675767250778772 -0.68357917891266839483 -1.1584690237657393475 1.1085837753613227985;0.87588034672903947175 0.096382444969356523279 0.11105134658919614543 -0.069894013147578107348 1.2821547608361880677 -0.070189257860609005624 0.71312634046594103321 -0.80744337724045212035 1.0406347702914429121 -0.37041580894776171551 0.22568079736811075264;0.71862062420863370704 0.27517185448953523919 -0.47648005976707685782 0.36774006724024793646 0.70278434762338426456 1.2513841069049238541 0.72006305579867047051 0.28688717454089135428 -0.77449984041704411641 0.88819668613929392276 0.21236654286953582371;-0.22415875359458961591 0.43464499702723313757 0.43467069580718620259 -0.75489090443108364248 -0.75167642987146432443 0.91134101966955949337 0.70341593625316589655 0.91440522660978151848 0.69831229688520857213 -0.39116594027957468649 -0.71886941629306910784;0.97365426576651359358 1.0641667061249657777 0.33236196791359023939 -0.97551603746165838071 -0.70909982771642887656 -1.1381442429776036374 -0.73757563932267000695 -0.16165400078569777675 -0.17783893386744731302 0.083003299643302025368 -0.95285629397979654254;-0.073105838062386754861 0.10660196722666223645 1.1963697219248548009 -0.74702873623775889467 -0.4167905935669417028 -0.13419782083503509207 -0.18974618638394938341 0.56421428333238177188 -0.85847068566190221084 1.2238554802274790312 -0.34460220943509412006;0.73948325351592214538 0.46413214047072659518 -0.48247886143578760931 -0.35035274537318744636 0.36126023073388086049 0.99320772759927589135 0.2564824372818816367 1.1340483578173274903 0.30924243400405082571 -0.97151428606961609535 -0.5092206149272318072;-0.094030420713672582811 -0.81815469842209354034 -0.027043766814720850145 0.24393450199258351341 1.0439714716330004141 -0.42548201568454574462 -0.95483768701570082005 -0.16155234110402760805 -0.11673279105493765406 -0.86781018650200958398 -1.0682383870767158118;-0.33042303147189977519 -0.66016612823631204421 0.047517315212892187459 0.72333986520820348076 1.2713732734098808219 0.31989183275714178079 -0.88049300964466870045 0.32975659257392414547 -0.91792488478167322263 0.47165456328320470858 0.10297378541245287564;0.51664349377468377078 0.87475587915039965115 -0.1571146237005089652 0.67182089416117207747 -0.52841340435477512916 0.96380770725387143738 0.0089882236915698066754 -0.98209281768835987592 -0.1542851383415629607 0.8089220021235649094 0.76845091188352676603;0.75528105960414193554 0.6490465056619827422 0.78887911730652660047 0.29749678051239969445 0.86354868196673517655 0.43710631858852572185 -0.10064620402891616413 -1.0559166140106999165 0.20691730231273713914 -0.29941184244212715182 -1.0898001020601715272;-1.0746063288572049732 -1.143114030024291905 -0.12609444442685102672 0.099410510117886569104 -0.41669508988941245109 1.0272226886200443996 -0.099817641885633023868 0.24064921194088234602 0.05969588009348610752 1.0414537651521262873 0.28605352899020691781;-0.79483329120377321786 -0.86605893853546944694 -0.57455755133632402387 -0.96977616469087302153 -0.7587697640393915588 0.09166948021197032781 -0.50436937672350590223 0.27923367152390060619 -0.90547622171307340366 -0.59964723869650771171 -0.52895210849899632066;1.6102489512170203856 0.36633130041152067724 0.10222408410428537873 -0.47464443915362197757 -0.41763519185169767356 -0.8228485425124352215 0.072271281300564038652 0.87501533253891006225 -0.37248682591496029559 -0.40251617186980043206 -0.35816403771071581019;0.27148271235889387398 0.1018300591597767063 -0.36247963386478992964 1.1911432818116680643 1.023399279783822946 0.15935444895277545152 -0.57166248153442156266 -0.94340005218801503695 0.74374029342507252949 0.84629317843932860832 0.10284920931610178063;0.87054100555714963861 -0.46299394724532105805 -0.71512561308285904627 0.64319555591120314286 0.90586160486336342323 0.607180565946468076 -0.13119228719198830491 -0.15778182208958230204 0.89200714772973432876 -0.88110861101859805355 0.42750777852945254232;0.20267822463951970513 -0.44365887785901042539 0.067682647444460009023 1.1258457204951046737 0.68257214768334850685 0.79863203038086638674 0.16320896233459791791 -0.72698803283425728061 -1.0761907258378153873 0.67284223599911763269 0.32508050495881962716;-0.47072674806414083193 -0.66502662886900232309 -0.23932233446271689026 0.72787762623395402262 0.44182137559438189323 -0.52003150589766899969 -0.68161501676830582586 -0.57615703322145217502 -0.85872244477809778207 0.9385003168391568007 -0.86373615263711722712;-0.54688495364582612179 0.1555470933371761455 0.71260104515840405615 -1.0983979765694182884 -0.19076725204861458285 -0.23684440737230963436 0.56262569238590165455 -0.90024124682289430321 -0.80166783821166576196 0.025423195945218197977 -0.98805300392722072989;0.75605365766001819683 0.54380690192643321712 0.034288145001224318298 -0.88943350076936567028 -0.023988976945880226971 -1.4203325029765399012 0.27998730268717536562 -0.12179903610303920158 0.26427730948160710334 0.78631362410064398194 -0.57670074594478126784;-0.63090169610763358055 0.0088748889377506176568 -0.62434569706511577891 0.95266731581711272536 -0.76693455048304459698 -0.0020047382687543519389 -0.72192942385053326948 -0.77529028119674781028 0.83074225608743257343 -0.53670755754513754798 0.67024001608887096015;-0.90996276779678419988 -0.11747906849137032537 -0.2400873013630281938 -0.52947430804170614316 0.80046328260148302824 -0.37716469438181404739 0.70703909061763692279 -0.98842059088240408204 0.95566138971567238247 0.72582676092479270213 0.043802601848435762655;0.64419610279572414591 0.73978740798745734608 0.75876739231100431837 0.1688161281719116058 0.43620111162667846161 0.89209522416789299726 -0.5143232350657367391 0.28219636417804017103 0.92134071068598377696 0.56591074523819429043 -0.71174401876136350609;0.88617810625969217764 -0.30061571864341379845 -0.64941557699926732994 -0.49984479491611499835 0.9596067498614687663 -0.83331554632985849196 0.30291291757011612473 -0.67293914740661342488 0.64662508889107850329 -0.84794642366371986153 -0.19826562414201220896];

% Layer 2
b2 = 0.079608442277342317261;
LW2_1 = [0.25681391888254911926 0.23274498131997681249 0.54672925084600254575 -0.072284638944468085353 0.5396881347857532818 0.29928190763569817445 0.083397147438400542896 -0.13784233360763231691 -0.24926177472642119248 0.40186595849750117448 -0.83929813234200167926 0.30293576302463498529 0.28143233931058980746 -2.3506069266075848567 -0.066719981303983003085 -0.089422051489096293642 0.98381490883479039145 0.55958557768910199837 -0.30157362779152480092 -0.45894452990254702707 1.2988143750181950775 0.46676259900930933133 -0.38556596863031239453 0.09971339583871359491 -1.5300878284576628907 0.37570754038289350119 -0.44916444298551805314 -0.097591611884007875566 -0.26348842051606718995 0.20100874083381564672 0.94263921033329356458 0.13328707903497052922 -0.34618993626846034095 -0.354210922184510002 0.070485783446680827513 -0.36924654059548916996 0.25509477387843126905 0.13828706701886783748 -0.25198396183199894827 -0.040940229689665208479 -0.65179534869370137073 0.18167728523010998054 0.99651964565448847289 0.062664815300980919455 0.41502541942666304475 0.17515573042151488803 -0.1885673166800956313 1.0057259558217754858 0.42781921301112035838 -0.071621647371971491891 0.020252423961877159819 0.64468645971754412471 -0.28172644550438113997 -0.59641390414825845578 -0.84681701262620212578 0.17414062250071232762 -0.13537327699327247887 -0.46203114974251602298 0.26138599484657981664 -0.15418092549758372067 -0.97135584819899356557 0.53935390945050309952 -0.066370451660327622889 0.1747109103687915499 0.80809355576777008867 0.37995774603508969403 0.92058403137510580461 0.25277608899079229143 0.10173988211476861498 0.55921385433666837006 -0.11582532799855324579 0.56081298361655451679 -1.2342614985088533608 -0.095538448875205517208 -1.9366422323134411254 -0.43833679340741121822 -0.3944445408538715947 -0.156712139719711957 -0.40907019729377780415 -0.80499398339624328447 -0.41405678127552930645 -0.24482349102855580081 0.33197679764381504697 0.30211033279303117771 0.57036231249868196702 -0.077632183586272024423 0.35887386049143427114 -0.26017517367857900812 0.1687364631385542546 0.06364978617379812853 -0.21229760021558907734 -0.11725728926289880061 -1.88784948009960174 -0.37587853551276179109 1.0596122511156806922 -0.76606677920708043938 -1.1646027613307301518 1.1807226429350858865 -0.97549431526315544261 2.1713305862107921129 -0.42324664442869769365 0.74910941358853244676 0.60883229647189973655 0.66381708666637917471 -0.21648630374334640325 -0.033505419662184704466 -0.41851229792041499955 -1.1145140857887341213 0.078693531677186637219 -1.2534379599434268826 -1.5683504870459483715 0.11989271504275667013 0.94927993585814407496 0.29329664169332481105 0.24267944904288249464 -0.92155264522843272079 -0.26469984111201155796 -0.11551935083450730335 0.12577330161143157605 0.19149376319680497249 -0.26462735935428949308 0.080667635028677714404 0.45025461235708563734 -1.1877727580306829402 -0.2052191133705570103 -0.38364159592806423849 0.15644195614806286065 0.11375256446524681375 -0.32387727087291207084 -0.010038593280700067525 1.0566157511970466487 -0.35573198116788584677 0.27681403574290613934 0.060874559411443547596 -0.023891695317618873162 -0.21110148981913570698 -0.15109751775731966594 -0.3417777046113263939 0.25542574003186241383 0.38176634456336910883 -0.30549601843725021633 0.34240009625538719851 -0.05717326605642156917 -0.18895291386539503353 -0.11475409860746313417 1.7044120577943664419 0.040934187129507609848 -0.21683992929257894788 0.01472337972437424633 0.20516869391446942994];

% ===== SIMULATION ========

% Format Input Arguments
isCellX = iscell(X);
if ~isCellX
    X = {X};
end

% Dimensions
TS = size(X,2); % timesteps
if ~isempty(X)
    Q = size(X{1},1); % samples/series
else
    Q = 0;
end

% Allocate Outputs
Y = cell(1,TS);

% Time loop
for ts=1:TS
    
    % Input 1
    X{1,ts} = X{1,ts}';
    temp = removeconstantrows_apply(X{1,ts},x1_step1);
    Xp1 = mapminmax_apply(temp,x1_step2);
    
    % Layer 1
    a1 = tansig_apply(repmat(b1,1,Q) + IW1_1*Xp1);
    
    % Layer 2
    a2 = logsig_apply(repmat(b2,1,Q) + LW2_1*a1);
    
    % Output 1
    Y{1,ts} = a2;
    Y{1,ts} = Y{1,ts}';
end

% Final Delay States
Xf = cell(1,0);
Af = cell(2,0);

% Format Output Arguments
if ~isCellX
    Y = cell2mat(Y);
end
end

% ===== MODULE FUNCTIONS ========

% Map Minimum and Maximum Input Processing Function
function y = mapminmax_apply(x,settings)
y = bsxfun(@minus,x,settings.xoffset);
y = bsxfun(@times,y,settings.gain);
y = bsxfun(@plus,y,settings.ymin);
end

% Remove Constants Input Processing Function
function y = removeconstantrows_apply(x,settings)
y = x(settings.keep,:);
end

% Sigmoid Positive Transfer Function
function a = logsig_apply(n,~)
a = 1 ./ (1 + exp(-n));
end

% Sigmoid Symmetric Transfer Function
function a = tansig_apply(n,~)
a = 2 ./ (1 + exp(-2*n)) - 1;
end
