function [Y,Xf,Af] = vertexCuratorNetwork_V1(X,~,~)
%MYNEURALNETWORKFUNCTION neural network simulation function.
%
% Auto-generated by MATLAB, 15-Aug-2019 02:18:52.
%
% [Y] = myNeuralNetworkFunction(X,~,~) takes these arguments:
%
%   X = 1xTS cell, 1 inputs over TS timesteps
%   Each X{1,ts} = 7xQ matrix, input #1 at timestep ts.
%
% and returns:
%   Y = 1xTS cell of 1 outputs over TS timesteps.
%   Each Y{1,ts} = 1xQ matrix, output #1 at timestep ts.
%
% where Q is number of samples (or series) and TS is the number of timesteps.

%#ok<*RPMT0>

% ===== NEURAL NETWORK CONSTANTS =====

% Input 1
x1_step1.keep = [1 2 3 4 6 7];
x1_step2.xoffset = [2;2;2;2;0;0];
x1_step2.gain = [0.00392927308447937;0.00392927308447937;0.0169491525423729;0.0465116279069767;0.1;0.25];
x1_step2.ymin = -1;

% Layer 1
b1 = [-3.0568829479469572519;2.7801657300121860317;-3.6385794990038893282;2.7878874417258168172;3.2694264857504693467;2.7371187057953347832;-2.6841033340279532027;-2.1344974087082793091;-1.2991079058622589937;1.0670808960718789482;-2.3832724445294397597;-2.4927312963451755401;-2.3941139115299829854;-2.3306400616566538275;-2.3611655597823681951;-2.5306875512749105184;-1.2794325988408941086;1.7049546452893546977;-1.3472330169060451333;1.9827922101752595285;-1.8656196289777229325;2.8141109883943693504;1.919415153007198338;-1.4989936509794268282;-1.9678756860767963044;-1.7650955627401991865;-1.571820896558000058;1.5518981548727044384;1.3920288008747327968;-1.4233075356490714203;1.6742272525241872483;1.3798283342993067357;-1.5349097621895155807;1.4677460181264787575;-1.3459740196886065267;0.98310384207753243047;0.5642026874169789874;0.94441032013748249518;0.52684135861098102538;1.3166092214871347732;-0.82909006493377745972;0.7461047506688561759;0.47445237495798880945;0.70103237219624736642;-0.62993844095458018106;-0.59176113965095900049;0.2342042052420952869;-1.014113645155633181;-0.43386319183989324744;-0.23861477496428729062;0.27522532191409743163;0.1522256527730954101;-0.16371935283033700603;-0.18983075059744122792;0.039150019320212781082;-0.16070137657587549307;0.18941045008248130754;0.026951220626336341857;0.24408355080047039465;-0.075650074044437451426;1.264942209191180833;-0.73201653122372301041;0.85997065419740637005;-0.82912466083432045938;0.19651577429301775313;0.50324086784273303063;0.54100020210518562358;-0.74072381446057566912;-0.4225755700025275452;0.88717798383840507093;-3.0032567603700388581;-1.4148589032113225716;-1.2049941310715115428;0.99549420277292344217;1.5040918407446668414;1.3566571921222470021;-0.56445826593450898478;1.4535361911176292171;-1.2100089435554826078;-1.4661970306894616112;-1.4958626432363557601;1.6471137749554733976;-2.0832266971488042628;-1.9723355657064127744;-1.7621926281096191858;-1.7067608899348638563;1.8110439292217617169;1.4950118309729722998;1.9009300082492155415;-2.1020110409476662205;-1.8946550940757391768;-4.848057804227029699;-0.446429495760105155;-2.2065018342388165173;1.5906461448767892364;2.3471851076345942033;-3.0912677597456883483;2.4322895981567054235;-3.9946760654900796972;2.5290474068551231923;-2.4452383811047169182;2.7175177120203457548;2.2384487481019248456;-2.3296424050211825829;4.9915531372331720661;2.5460316282775674601;-4.7422762399275644185;2.9553655918939143454;-3.1007859077498971523];
IW1_1 = [1.3881964974759124498 0.86504218886426487156 0.85818094857881688231 0.00900430026972216975 1.7122171608981386903 1.7396427884314635826;-0.22992916302152302532 0.56495757793435352756 -0.35998503388979125051 1.7481423008917018613 2.0496317903245730996 -1.608179298553622516;0.3956053025670636103 0.13168059131582737775 0.50322767211906926921 -2.4237189020521818783 0.33105984755308459633 -1.1529963367115256823;-1.1284549079762780099 1.1676207820584769692 -0.82397335044650499292 -0.82776669267876412661 -2.0608165718794437815 1.2553517582675695063;-0.6291734415446568196 -0.6778579553205635877 -0.32248456798140656687 0.36124016760453464547 3.1078868692162546772 0.16149130387673485409;-0.9731121871738016571 0.5284934032318649999 0.047263045727850200306 -2.0616889344874040901 -2.0038929863367860307 0.078312381793908425465;2.0000293414445882156 -0.41104996969957913189 1.5316156089157899611 0.82177984819666449745 -1.4666122790873732384 0.4226166916231761661;1.5529012682317349103 1.3343920724693487667 -1.6412442519679066866 -0.4513042050212092704 -2.1308408116701471613 0.73257477681936788994;1.8031645040329185026 -1.5672829898199569509 -0.77939182744748658482 0.016466311796647151861 -3.0599490760870264872 -0.57473460632919581847;-0.3091472891002540746 0.77216672027824362345 0.19951095305373686695 -3.6996868379693736983 2.6610618736157989339 0.32980654550130383829;0.56984132217100191831 -2.5577786048796102847 1.5214209170599155563 0.36850994942385323361 -1.1197359132795134951 -0.43809154167649877465;1.1404037315998385438 0.4631792954959835229 2.0979050076880394471 1.6138533811106174909 0.76281994553252030489 0.2415140203299334376;1.7561666689912329709 1.3900559188250627418 -1.299869822029195543 -0.69910124568671749845 1.500903313506874337 0.41405932887765678485;1.5122519010676143125 -0.78382095075983715393 -0.014135128602734066058 1.4930836523710782071 0.89839622311224065498 1.8462879459337679933;1.3607720158013754119 -0.52327495295756853988 -0.78125267713827850624 1.1999401191148955093 -1.4933812436398863355 1.5705320496819827891;0.74215859230285685655 0.70291656721995721124 1.7958862992954045534 0.51819570730469433073 -2.4048175846660999611 -0.11096936544683172476;0.38549623908618496637 -2.0924765976318044913 1.2251771549693282193 2.1170225164200990875 -1.6301315644464995369 -1.0335535967399234192;-2.1742640995435849049 -1.2241986119815966294 -0.44056579315524813101 1.109060017290377953 1.7479386897846633797 -0.63520390128906645266;-0.24342207512234778632 -2.1149878235232284496 1.6742193665354947463 -0.93801305269453416624 -1.024664199536630127 -1.5218324361160715519;-0.094763092437225651676 -0.29179699556434962604 1.1024737235833570459 -1.8621711660973689906 -1.8804609901333142474 -1.0150989257150535572;1.2829830003702937802 -0.19689427048489324679 1.9732575006437065301 0.88804160958210776045 0.96512320044890742565 1.4863349843286721708;-0.11256047346416145349 0.50272529486036887647 3.7049777678198685393 0.90645861746591094299 -0.26176994883987703133 1.0092095145569202064;-1.6469491254356667387 1.2410084816845394773 1.938104097682930238 -1.0928516125235656631 0.66639147945185039923 -0.44431845325073698882;1.3114262530595446332 -1.9165808110187587676 2.2366991594419158851 -0.5639129343764474056 0.025546169352722761237 0.62944908785711739529;0.095339148090405514968 -0.97281102681075382055 -1.7142898702345432671 -0.067788060466790811542 1.5364386296278298438 1.5044720633999513204;1.2457644571829047386 -0.59426143324017133285 -1.7973698471874230975 0.33423986068766792235 0.946943095500217491 1.865505858149466567;0.2844584723760868461 1.6803694618117488435 -1.3353574349162122825 -1.4670814176413671248 1.4442392125369412081 0.98140119254555635564;-1.7522304949427733867 -0.19414326641976689669 0.25410295312143876822 0.88378099809144194943 -0.56696810032348143871 -2.2314163577351844303;-2.2547664502967061928 0.11671870495144681668 -1.1319399446623306105 -0.32233171529400106436 -0.44181871240399611667 -1.7115123300602650414;1.7600851322020603096 -1.600796981538081587 -0.093758709298721515379 -1.6926762614136481311 -0.94127450967927972503 1.1222962919543753024;-1.1226157297808192492 -1.7673251485480434564 0.24711288408431356101 -0.034719303262202488858 0.89552556436950914165 -1.8227026413332840793;-1.8586822028230471915 -1.3154627895786228375 1.3493534363283805622 -0.89515143033249400251 -0.83116307916626330776 1.2443613229524821406;1.0361178686450607245 1.1052274626264797508 1.3881683626947656229 -1.3662425769879851245 1.2593674251172040091 -1.2106161916764754949;-1.2265383687686031156 -1.0558853849769334055 1.6134944038443232994 -0.37738760503982327066 -1.7111116433026056782 0.42347564402705806241;1.3891561460351549151 0.70208515178361852183 -1.3988194638640734091 -1.2230952128423198122 1.4094859828510817312 -0.10195349579571524878;-1.958639647027697217 -0.12098744969025211626 1.9596653408736568469 -1.0302556159642866085 0.064900852555554527923 -0.60741837150740829454;-0.55816554407002028082 -0.40586807235911237512 0.32454401846386560226 -2.7240353011969054009 -0.52991873098210207083 1.7101208692331750783;-0.23031546978952510685 1.8587013757504162736 -1.2210302039491085502 -1.2506028128971573565 -1.4909254321960239142 -0.74063320351933892294;-2.2006950978842199085 0.46654599393520168604 -1.6063937280151663334 -0.80373100148839360379 0.35514891549869542775 1.3943205730763625905;-0.23329417268633947935 -2.3636960307627927769 -0.84707699317500961822 0.82570524770755182598 1.1203017446535949997 1.295167455270727741;0.99898697902297073359 1.0926082268962711286 -0.78039927683512333445 1.7728076201023199587 -1.5298289790351931039 1.6690829742342849773;-1.6167198980474424275 -1.5153003737058698963 0.055458909300253697583 0.37584982759247842488 -0.89864275749471045351 1.915295769986016472;-1.0713865218550624459 1.1067033079785344452 1.753373151398856411 -1.161413996405592064 2.0021681906497743597 0.52261741752755819235;-1.0107387474416877904 1.3057436690361454712 0.77783311317862213752 -0.30496237598582814909 -0.73118402274926208584 -2.2349061566985817251;1.3184188600835944349 1.3589920407297124694 -1.3832237885455678228 -1.9956950764949681343 -0.39621433567234359829 0.7155772492760500425;0.6595483090662597192 1.8773265712708864239 -1.2030749790176669123 -1.1103982754406782618 -0.63453533432743280951 1.4611283218232609116;-0.50416900366416084189 1.0706509669546584451 0.81829754117804620606 0.53802855898165247162 -0.96139349834059062427 2.8096315285100170733;0.20737880432523489449 -2.1847977229502184571 -0.49770754979836784315 -2.0774842095211982773 1.4389600302269303089 -0.40781954765202377278;1.373236608000984571 -0.29488321494119079658 0.52808122637368504204 1.8617236795729086296 1.243770385011574664 1.4859362124878778832;1.7095320481102151966 -0.43412640813827746422 1.0592345648119387835 0.037141589615693672288 -1.3509659341668518451 1.7439174056624324738;1.4101493930455444303 -0.46059586242366923337 -1.8711071534852521392 -1.194288201526791493 -1.4739426183241617352 0.78399016031469292987;-0.16987375104858545849 0.60659921806124306176 -1.3482218662558016486 -1.5540834989246761211 0.74661083103667136296 -2.112804843120993592;-2.4353251122401240458 -0.46109698685480077218 -0.29375197961577642625 -1.4685240407598212364 0.81019366117378066594 -0.9094505507888657192;0.09120409474854168641 -0.49872446439404022334 2.5259234226132241119 -1.2365989777882955281 2.0943806430570437449 0.46063601201520221196;-1.6647091171652974584 -0.41056877325200702433 -1.0618237991588701519 0.71958314125798350513 1.43781694841732266 1.6287010198614977341;0.73381259747955907002 1.6495150086084040542 -1.2005193198030337243 1.2358632246313676628 1.8188621124585264699 -1.6347056946801650223;1.8971556393853175049 0.17361283228927446021 1.4813972476645504983 -1.2616439297597845659 1.0619072113614280717 -0.10033214193341806475;0.29001617430705761702 -0.95923587041038615997 -2.2450887658469329544 -1.1513541726522606989 -0.78288282912334739017 1.3398008879833513962;0.99963549132019779986 -1.2134080682544945429 0.90830583206137982533 -1.559713856342127114 -1.6095692344583703015 1.2845866857690571017;-1.5893564993424722509 1.1558739099240591397 -1.927166504163416505 -0.75438862216292867924 0.79201777498162917457 -1.297873193466888786;0.35088532058926175106 0.065189293592670699562 3.2051154659111484868 1.6690233548384982853 0.9716169404660525144 -1.9084003347744940005;-1.8023644954910871263 -0.74064188628857829944 0.033150361412928333604 1.8005526790651329438 -1.1248220210603339098 0.79148980885593089862;-0.12231127443379349873 -1.7418488696362999235 -0.49359652213440979862 0.8880953478664477263 2.0633274569014012911 1.9546118464414894422;-2.1444102643501956607 0.72486069465118563304 -0.4057516365461887875 1.4637083030803590411 1.1280611264545270522 -1.3668015414494021353;0.93175673764344424388 1.9872725661048233903 0.41987662802207159629 -0.27846026789935884871 1.0259851019482586487 2.3035582181308820182;1.7531669868697070669 -0.297674603820356376 -1.7596034131307412007 -0.10454714232656482642 -1.8227211795121265325 -0.23987928861014770621;0.45864230708316061635 1.0707407305354532667 1.2642921252074736937 -0.97878463233049894932 -1.7758600198702689799 -1.5471615481441276518;-1.5774633284896848462 0.5512613668868582284 -1.0763713193510304755 1.4141429404416563376 1.6923833413252431512 0.75064700089350244738;-1.0192164157687217951 0.87452333336403587083 1.5587106593667545695 1.1660331982980365328 -0.45369953378744443118 -2.0391530381884028778;0.18120445788257497077 0.55848529162981752627 1.3265871156713626711 1.427973139815553294 -1.700747994858774037 -1.5187388442410409972;-0.79890578976913684262 1.3440711354809331546 0.74822296340579930174 1.6445055531616439293 -0.76872291453512286985 -1.5359883801622202792;-0.51866796830516703753 1.1222649222004608127 -0.84206985548617141468 -1.4027490965746103324 -1.7800111910724607522 -1.1577144010399011975;-1.4045163032588598995 1.298793000932373598 -1.7801819236351017484 -1.5083510733590823616 -0.22298816415800049029 0.85299165767349316436;1.5306336288951745139 -0.99838069653691940974 -1.3591650905518457559 0.51548186418828545463 -1.6757639491821123556 -1.0896568193401792168;2.1163259863706689323 1.3533497126739262306 1.2387678058793916147 -1.0911315914391204185 -0.8446908140241139451 -0.42369911024882800366;0.35363268512667539456 2.6156001838971549844 -0.26904154120285966867 1.2507413217537888261 -0.066418486822634292821 -0.55740053197551386877;-0.33635370902477185195 -1.4790656980936720544 -1.4738518257524144683 1.5713529916788055996 -2.9816703493273752912 -0.59954080431747314162;1.4007101664316059519 1.3389957456373122735 -0.82855731902399343269 1.9023134290592234041 -1.2053035211382903125 -0.12371349035491352453;-1.5297275209129228557 1.2800460034981175905 -1.961950636268200876 -1.786422520438196937 -0.69179232036956472829 -0.63170819680190237744;-1.4090972235988326045 1.2053008815518937435 0.59798012588674420709 -1.4067671496865803427 1.7988113171028314863 -0.44018421329680157417;-1.4548408947213902209 -1.026835718027752975 1.222552174233479283 1.5510118295396870813 -0.09617881914087722528 1.5092496484435318216;1.5780768139394980576 1.0146703279193676206 -0.37735101376408658469 -1.8780576663033381468 -1.3449780437820673118 -0.24546922128503492755;-0.67030873646234967467 1.0076577903990937557 0.86939130389550556277 0.26682009729861794201 -1.9436150958178577408 0.059267077231001434601;-1.9509813691991633178 -0.30376107735892982076 -0.94817582337877681642 -0.75435001290877690128 -1.4000634984417263951 1.1862373806522343855;-0.94606091804424574665 1.2206475550321562729 1.5669033031540104961 -0.86197515837728655441 1.3679583854161714296 1.3214650054033514337;-1.2964314342679628123 1.2894494567097696258 1.5908269939709207552 -0.38632698027757472747 -1.3760589028049834415 1.3125072642019000035;0.10572067098689527653 1.5586360677511343908 -0.380184022166757285 -1.5037629467725797117 1.6880705641117179638 -1.2224404736296383689;1.614762730770698651 0.27139324635028294619 -2.0900569913254645193 -0.13456543370967674611 -1.7862468414493590796 0.89818700753078650756;0.64974732632498599649 1.3737022061741697154 -2.3819385719263461709 -0.81739990205886514651 0.82988923433984163047 -0.52944058222193346452;-2.1045665722127426811 0.29293219014721177951 0.65899862466951975026 0.027756829715113947449 1.9179540622454880339 -0.67105340725513040745;-0.97564063688725444212 0.20682419408151880846 -1.6147200002726198598 2.1400637549526613235 1.3376580648446092514 -0.52114485549283051657;-0.13537526645484115884 0.015881442703917961201 0.82213942867384326441 -4.7991669168456541072 -1.9864604043370164277 0.49364554211819583474;-0.41125719615240347027 -0.11770641600356511469 -1.224583367201073747 3.4051804236160467809 -2.1502502194488739562 0.82841739651851864501;-1.3189566939500965148 1.371237657069863225 -0.70692497674963494791 -1.3666548775948328398 0.99572545847217541759 1.5504954024613029073;-0.017038362874816241621 2.4281317349500164404 1.4482976119927206682 -1.7042397393589590049 0.29608218508365069521 -1.2964333778870453795;0.65503644389022841477 -0.44167966110379569544 -0.74678374054389240477 -2.3608975090613348868 0.78093715101736038697 -1.3663965971460536597;-0.051889828094583520524 -0.36422908516862717576 0.19630610492264283229 -2.4108869313238439069 1.0662950030783537869 -1.4030925529073512426;0.047723074175525126428 0.38367708017761970041 1.4049929822259934475 -1.4971837619060688329 -1.0722751224574431639 -1.9619933372164262142;-0.16597330881117816626 -0.45343148432601587672 0.41749090932764343354 -0.81778929781766995788 -1.4801818486258881968 -1.2160947549616734076;1.8271746255174390328 -0.40210519036700970164 0.80010806902562603415 -1.2549323430435987969 -1.5822071536485555754 1.1746281448856521479;-1.392624224903401986 0.64826430496254050517 -1.9190565295280292979 1.3196788422246712447 -0.21363049286871607646 1.4784379257581021783;1.7730059088180056825 0.29765318202042734264 -1.2756755822463567984 -1.0048612875852549475 -0.094243046297176696902 1.7336796676047989685;1.5744142405452210554 1.6632601269901672314 -1.3571478306349209486 -0.8988426874458653737 2.0734967646222082216 1.7196633679407886675;-1.5397813764846868256 -0.30595804783888552736 0.032843855602400176541 3.2333787391814197143 -1.3228060412939122159 -1.2872591142773714967;-0.026966010693705008694 0.063643731670447692417 -0.92592595131372112949 3.4600664212591061286 2.0062973495913678512 0.89180221606345311258;1.4896038590974833848 -1.8330624235161689928 1.8413570630373634618 -1.2613327974322459113 0.32631496061698517241 0.89715900832505934837;-0.027778361132451825227 -0.1909995707293845324 0.68002519380946391259 0.37008492569895168334 -3.7385688545874646849 -1.5985197064186500437;0.9130622924693635456 -0.31016174038515398337 -1.5283000078540125433 0.91584682319435317677 -1.7185475046879143957 1.647513723120132445;-1.2699006451862786538 -0.971000100330488225 1.7457563402408418085 -1.4259204298301682012 0.40935030782279474559 1.1967054232509402034];

% Layer 2
b2 = -0.2481108612734908847;
LW2_1 = [0.27017926477108428207 0.42211428235543396736 -0.44247120120840555124 -0.73605978226321033819 2.4266689141912829442 -0.34333177391346181295 -0.23862214784529711675 -0.39679767402368076867 -0.58303931683888587933 1.4668518171625646307 -0.60448533062192388865 -0.075568337986850517285 0.6735875584595977239 0.20129239501106141463 0.21043680497661496065 -1.4816301556026920672 -1.2060873038558945769 0.51314632621333322593 -0.31585482369268302882 0.083728180764472998066 0.54636384873066534684 2.4451292317210313598 -1.7279342803930131112 0.91295082970637653208 0.2502768151011479647 -0.63726428218979358498 0.7002356427676759143 -0.37112415204124660217 -0.47285239116873023502 1.0068915329996479535 -0.36127231643865964639 0.32619093860507958338 0.54201486269364940185 -0.45305628709165790546 0.3072628223268981662 -0.82110468902467381724 0.50979305745156378027 0.15110124538451014109 0.1702340053993356972 0.88592507021054744953 -0.68346005896513151168 0.32082407675379459588 1.1114320459330100377 0.62975775339977169143 -0.76607825865209611127 0.14997259907714946547 0.60797642151796282839 1.5113304154099771459 0.34197158110889119831 -0.37357286686960161637 -0.35994041025871764683 0.95548192484704452809 0.81443929857700891883 1.9285765859222065988 0.078283418999952322781 1.2575321565806376611 0.14272494089001330764 -0.69763385727895788069 -0.26952623806991637956 -0.59961162366204567853 2.1789042017865574152 -0.30759255922624623159 -2.0699624494503328087 0.83548979622167740544 1.2143326077200562452 -0.80796098500333524139 0.46855543902956509061 0.33890770624860616644 -0.54019012607953509342 0.054891679919273822508 -2.4457311692561796157 1.5450405970765281882 1.4782711158534145302 -0.55186326274733676911 -1.1550525669782427673 -0.25683431173176723972 -2.3114417752974456555 -0.44862218084296506815 -0.93455405052738171889 0.2393628023904039448 -0.4284592427151207028 -0.46597189244509512607 -1.0283217534919482095 -0.28032712829940947818 0.26987142520159651538 -0.36993863224413325863 -0.11417539322562693382 -1.1550024483301402078 -0.34053972791719028246 0.41609628131956216679 0.8605270942553420177 -4.7861295531555425598 -0.55012479931865443383 0.029985823528908692875 0.33800892595757275894 -0.078456223006567488154 -0.81545489637654966497 -0.063016401869410307302 -2.2806155090195945334 0.22554399757391482839 0.60603604981471803637 0.017799525736170909024 1.2255888285614511268 -1.185930114056808371 3.9846638763453694487 -0.41423582412553427989 -4.2129412743030218991 -0.52735387589120774621 0.041766192704839041894];

% ===== SIMULATION ========

% Format Input Arguments
isCellX = iscell(X);
if ~isCellX
    X = {X};
end

% Dimensions
TS = size(X,2); % timesteps
if ~isempty(X)
    Q = size(X{1},2); % samples/series
else
    Q = 0;
end

% Allocate Outputs
Y = cell(1,TS);

% Time loop
for ts=1:TS
    
    % Input 1
    temp = removeconstantrows_apply(X{1,ts},x1_step1);
    Xp1 = mapminmax_apply(temp,x1_step2);
    
    % Layer 1
    a1 = tansig_apply(repmat(b1,1,Q) + IW1_1*Xp1);
    
    % Layer 2
    a2 = logsig_apply(repmat(b2,1,Q) + LW2_1*a1);
    
    % Output 1
    Y{1,ts} = a2;
end

% Final Delay States
Xf = cell(1,0);
Af = cell(2,0);

% Format Output Arguments
if ~isCellX
    Y = cell2mat(Y);
end
end

% ===== MODULE FUNCTIONS ========

% Map Minimum and Maximum Input Processing Function
function y = mapminmax_apply(x,settings)
y = bsxfun(@minus,x,settings.xoffset);
y = bsxfun(@times,y,settings.gain);
y = bsxfun(@plus,y,settings.ymin);
end

% Remove Constants Input Processing Function
function y = removeconstantrows_apply(x,settings)
y = x(settings.keep,:);
end

% Sigmoid Positive Transfer Function
function a = logsig_apply(n,~)
a = 1 ./ (1 + exp(-n));
end

% Sigmoid Symmetric Transfer Function
function a = tansig_apply(n,~)
a = 2 ./ (1 + exp(-2*n)) - 1;
end
